n,variance,specified_alpha
1,0.01752042,-0.2
2,0.017245723,-0.2
3,0.016533041,-0.2
4,0.016255708,-0.2
5,0.016126148,-0.2
6,0.015891282,-0.2
7,0.01571851,-0.2
8,0.0155986715,-0.2
9,0.015540117,-0.2
10,0.01550139,-0.2
11,0.015387424,-0.2
12,0.015321563,-0.2
13,0.015183781,-0.2
14,0.0151605,-0.2
15,0.015035807,-0.2
16,0.014996475,-0.2
17,0.014955417,-0.2
18,0.0148766525,-0.2
19,0.014798536,-0.2
20,0.014708185,-0.2
21,0.014592749,-0.2
22,0.01458308,-0.2
23,0.01448364,-0.2
24,0.014427893,-0.2
25,0.014364066,-0.2
26,0.014275711,-0.2
27,0.0142470645,-0.2
28,0.014209092,-0.2
29,0.014187613,-0.2
30,0.014152484,-0.2
31,0.01409534,-0.2
32,0.014060445,-0.2
33,0.013993668,-0.2
34,0.013885985,-0.2
35,0.013863164,-0.2
36,0.013816926,-0.2
37,0.013797935,-0.2
38,0.013761693,-0.2
39,0.013687977,-0.2
40,0.013641114,-0.2
41,0.013615727,-0.2
42,0.01351692,-0.2
43,0.013487248,-0.2
44,0.013455827,-0.2
45,0.013398849,-0.2
46,0.013367658,-0.2
47,0.013289383,-0.2
48,0.013258697,-0.2
49,0.013239359,-0.2
50,0.013197981,-0.2
51,0.013105413,-0.2
52,0.0130635025,-0.2
53,0.013026979,-0.2
54,0.013017421,-0.2
55,0.0129662175,-0.2
56,0.012943055,-0.2
57,0.012907566,-0.2
58,0.01286016,-0.2
59,0.012825547,-0.2
60,0.012818774,-0.2
61,0.012759657,-0.2
62,0.012721037,-0.2
63,0.012682488,-0.2
64,0.012627879,-0.2
65,0.01258552,-0.2
66,0.012572675,-0.2
67,0.012556394,-0.2
68,0.012528053,-0.2
69,0.012483043,-0.2
70,0.012391649,-0.2
71,0.012368763,-0.2
72,0.0123108765,-0.2
73,0.012284787,-0.2
74,0.012262242,-0.2
75,0.012219526,-0.2
76,0.012203441,-0.2
77,0.012182866,-0.2
78,0.012139141,-0.2
79,0.01210053,-0.2
80,0.012079864,-0.2
81,0.0120665785,-0.2
82,0.011982204,-0.2
83,0.011975417,-0.2
84,0.011927318,-0.2
85,0.011879655,-0.2
86,0.011865326,-0.2
87,0.0118309455,-0.2
88,0.011795088,-0.2
89,0.011756528,-0.2
90,0.011740884,-0.2
91,0.011717985,-0.2
92,0.011698977,-0.2
93,0.011682843,-0.2
94,0.011623264,-0.2
95,0.0116116,-0.2
96,0.011594186,-0.2
97,0.01153392,-0.2
98,0.011514229,-0.2
99,0.0114667835,-0.2
100,0.011432569,-0.2
101,0.0114046,-0.2
102,0.01139445,-0.2
103,0.011344152,-0.2
104,0.0113370605,-0.2
105,0.011311149,-0.2
106,0.011265443,-0.2
107,0.011241435,-0.2
108,0.011236816,-0.2
109,0.011205833,-0.2
110,0.0111865215,-0.2
111,0.011136474,-0.2
112,0.011112006,-0.2
113,0.011054432,-0.2
114,0.011035487,-0.2
115,0.011014569,-0.2
116,0.010996757,-0.2
117,0.010983335,-0.2
118,0.010916861,-0.2
119,0.01089931,-0.2
120,0.0108900005,-0.2
121,0.010848245,-0.2
122,0.010824975,-0.2
123,0.010766364,-0.2
124,0.010747724,-0.2
125,0.010701248,-0.2
126,0.010682039,-0.2
127,0.010661039,-0.2
128,0.010594072,-0.2
129,0.010566025,-0.2
130,0.010545218,-0.2
131,0.010529814,-0.2
132,0.010517109,-0.2
133,0.010474617,-0.2
134,0.010468804,-0.2
135,0.010421767,-0.2
136,0.010384102,-0.2
137,0.0103670275,-0.2
138,0.010359437,-0.2
139,0.010339886,-0.2
140,0.010299919,-0.2
141,0.010275057,-0.2
142,0.010258294,-0.2
143,0.010233426,-0.2
144,0.010218026,-0.2
145,0.010200893,-0.2
146,0.0101632625,-0.2
147,0.010154385,-0.2
148,0.010125905,-0.2
149,0.0100984415,-0.2
150,0.010071208,-0.2
151,0.0100583695,-0.2
152,0.010027002,-0.2
153,0.010020293,-0.2
154,0.009988493,-0.2
155,0.009967915,-0.2
156,0.009932474,-0.2
157,0.009902716,-0.2
158,0.009893207,-0.2
159,0.009850345,-0.2
160,0.0098210545,-0.2
161,0.009815246,-0.2
162,0.009784808,-0.2
163,0.009767039,-0.2
164,0.009717228,-0.2
165,0.009696743,-0.2
166,0.009682671,-0.2
167,0.009668077,-0.2
168,0.00964596,-0.2
169,0.009604619,-0.2
170,0.009579755,-0.2
171,0.009567313,-0.2
172,0.009533856,-0.2
173,0.009506895,-0.2
174,0.009503327,-0.2
175,0.00948427,-0.2
176,0.009442478,-0.2
177,0.009419998,-0.2
178,0.009401297,-0.2
179,0.009394288,-0.2
180,0.009387548,-0.2
181,0.009344879,-0.2
182,0.009338028,-0.2
183,0.009308401,-0.2
184,0.009283219,-0.2
185,0.00925385,-0.2
186,0.009235467,-0.2
187,0.009205228,-0.2
188,0.009183856,-0.2
189,0.009169367,-0.2
190,0.009141059,-0.2
191,0.009122674,-0.2
192,0.009106561,-0.2
193,0.009072934,-0.2
194,0.009055069,-0.2
195,0.009039367,-0.2
196,0.009021745,-0.2
197,0.008986364,-0.2
198,0.008960634,-0.2
199,0.008945128,-0.2
200,0.008914707,-0.2
201,0.008906907,-0.2
202,0.008889136,-0.2
203,0.008862202,-0.2
204,0.008844858,-0.2
205,0.008826101,-0.2
206,0.008783383,-0.2
207,0.008765537,-0.2
208,0.008744925,-0.2
209,0.00873504,-0.2
210,0.008710447,-0.2
211,0.008704246,-0.2
212,0.008689196,-0.2
213,0.008676158,-0.2
214,0.008656706,-0.2
215,0.00862078,-0.2
216,0.00859742,-0.2
217,0.008574494,-0.2
218,0.008570478,-0.2
219,0.008554533,-0.2
220,0.008528493,-0.2
221,0.0085093,-0.2
222,0.008488154,-0.2
223,0.008444027,-0.2
224,0.008440459,-0.2
225,0.008412819,-0.2
226,0.008389163,-0.2
227,0.008356032,-0.2
228,0.008344506,-0.2
229,0.00830528,-0.2
230,0.008291993,-0.2
231,0.00828732,-0.2
232,0.008267617,-0.2
233,0.008225515,-0.2
234,0.008216678,-0.2
235,0.008190619,-0.2
236,0.008174566,-0.2
237,0.008158463,-0.2
238,0.008148886,-0.2
239,0.0081407,-0.2
240,0.008117876,-0.2
241,0.008093485,-0.2
242,0.008058575,-0.2
243,0.008047609,-0.2
244,0.008039163,-0.2
245,0.008028914,-0.2
246,0.008007252,-0.2
247,0.007986468,-0.2
248,0.007954355,-0.2
249,0.007949684,-0.2
250,0.007940943,-0.2
251,0.0079178065,-0.2
252,0.00789616,-0.2
253,0.007860976,-0.2
254,0.00784003,-0.2
255,0.007833697,-0.2
256,0.007822104,-0.2
257,0.007798304,-0.2
258,0.007788858,-0.2
259,0.007744089,-0.2
260,0.0077202087,-0.2
261,0.007704302,-0.2
262,0.0077028777,-0.2
263,0.007684135,-0.2
264,0.007681581,-0.2
265,0.007672865,-0.2
266,0.0076553053,-0.2
267,0.0076272604,-0.2
268,0.007608693,-0.2
269,0.007578199,-0.2
270,0.00753819,-0.2
271,0.0075256145,-0.2
272,0.0075118383,-0.2
273,0.0074989237,-0.2
274,0.0074938545,-0.2
275,0.007475631,-0.2
276,0.0074703097,-0.2
277,0.0074523618,-0.2
278,0.007443771,-0.2
279,0.0074077467,-0.2
280,0.0074004894,-0.2
281,0.007373718,-0.2
282,0.0073549678,-0.2
283,0.007349253,-0.2
284,0.007338274,-0.2
285,0.0073134364,-0.2
286,0.0072910935,-0.2
287,0.007269486,-0.2
288,0.0072444323,-0.2
289,0.007238236,-0.2
290,0.0072357804,-0.2
291,0.0072068595,-0.2
292,0.007180627,-0.2
293,0.0071654357,-0.2
294,0.0071415976,-0.2
295,0.0071197613,-0.2
296,0.0070891446,-0.2
297,0.0070801605,-0.2
298,0.0070618405,-0.2
299,0.0070562228,-0.2
300,0.007038883,-0.2
301,0.0070313895,-0.2
302,0.007018712,-0.2
303,0.0070083984,-0.2
304,0.006995807,-0.2
305,0.0069719423,-0.2
306,0.0069602407,-0.2
307,0.006958837,-0.2
308,0.006942343,-0.2
309,0.006927567,-0.2
310,0.0069056577,-0.2
311,0.006890484,-0.2
312,0.006869854,-0.2
313,0.006846372,-0.2
314,0.006831115,-0.2
315,0.006823859,-0.2
316,0.006807961,-0.2
317,0.006787282,-0.2
318,0.0067543406,-0.2
319,0.0067385267,-0.2
320,0.006734636,-0.2
321,0.006709975,-0.2
322,0.0067087486,-0.2
323,0.0066880677,-0.2
324,0.0066805473,-0.2
325,0.0066624605,-0.2
326,0.0066440864,-0.2
327,0.006629922,-0.2
328,0.006609422,-0.2
329,0.0065997476,-0.2
330,0.0065720445,-0.2
331,0.0065603936,-0.2
332,0.006546468,-0.2
333,0.0065361075,-0.2
334,0.006521905,-0.2
335,0.006495521,-0.2
336,0.006478268,-0.2
337,0.006445684,-0.2
338,0.0064354194,-0.2
339,0.0064277756,-0.2
340,0.0064130942,-0.2
341,0.006399974,-0.2
342,0.0063827643,-0.2
343,0.006371425,-0.2
344,0.006357572,-0.2
345,0.0063499697,-0.2
346,0.006324948,-0.2
347,0.006321468,-0.2
348,0.006308334,-0.2
349,0.0062714787,-0.2
350,0.006252857,-0.2
351,0.0062447414,-0.2
352,0.0062313853,-0.2
353,0.0062190522,-0.2
354,0.006212959,-0.2
355,0.0061888946,-0.2
356,0.0061831474,-0.2
357,0.0061730593,-0.2
358,0.0061576436,-0.2
359,0.0061359555,-0.2
360,0.006128519,-0.2
361,0.006107205,-0.2
362,0.006090828,-0.2
363,0.0060828375,-0.2
364,0.006074666,-0.2
365,0.006051936,-0.2
366,0.006032473,-0.2
367,0.0060279425,-0.2
368,0.006017565,-0.2
369,0.0059868577,-0.2
370,0.005969557,-0.2
371,0.005952386,-0.2
372,0.0059335087,-0.2
373,0.005919835,-0.2
374,0.0059143365,-0.2
375,0.005905477,-0.2
376,0.0059018116,-0.2
377,0.005891353,-0.2
378,0.0058685676,-0.2
379,0.0058467723,-0.2
380,0.0058357646,-0.2
381,0.0058104936,-0.2
382,0.0058029983,-0.2
383,0.0058011804,-0.2
384,0.0057784193,-0.2
385,0.0057594995,-0.2
386,0.0057519283,-0.2
387,0.0057455488,-0.2
388,0.0057186056,-0.2
389,0.0057096346,-0.2
390,0.0057041016,-0.2
391,0.005676381,-0.2
392,0.005669264,-0.2
393,0.0056556785,-0.2
394,0.005643346,-0.2
395,0.0056284685,-0.2
396,0.0056157787,-0.2
397,0.0055998634,-0.2
398,0.0055830413,-0.2
399,0.0055623977,-0.2
400,0.0055571995,-0.2
401,0.0055530984,-0.2
402,0.005528798,-0.2
403,0.005518617,-0.2
404,0.0055087153,-0.2
405,0.0054936185,-0.2
406,0.0054751243,-0.2
407,0.005470424,-0.2
408,0.00545329,-0.2
409,0.0054412205,-0.2
410,0.005418933,-0.2
411,0.0054112407,-0.2
412,0.005408358,-0.2
413,0.0053826706,-0.2
414,0.0053781983,-0.2
415,0.005362251,-0.2
416,0.00534948,-0.2
417,0.0053278604,-0.2
418,0.0053253574,-0.2
419,0.005314132,-0.2
420,0.005296269,-0.2
421,0.005285223,-0.2
422,0.0052678073,-0.2
423,0.005242522,-0.2
424,0.005239807,-0.2
425,0.0052366373,-0.2
426,0.0052269134,-0.2
427,0.005213015,-0.2
428,0.005191171,-0.2
429,0.005180023,-0.2
430,0.005178791,-0.2
431,0.0051656086,-0.2
432,0.00514998,-0.2
433,0.0051395814,-0.2
434,0.0051274565,-0.2
435,0.005110095,-0.2
436,0.0051025907,-0.2
437,0.005089314,-0.2
438,0.0050728796,-0.2
439,0.0050588045,-0.2
440,0.0050449325,-0.2
441,0.0050326386,-0.2
442,0.0050250883,-0.2
443,0.005002847,-0.2
444,0.004996022,-0.2
445,0.00498676,-0.2
446,0.0049742945,-0.2
447,0.004960678,-0.2
448,0.0049522533,-0.2
449,0.00493369,-0.2
450,0.004929028,-0.2
451,0.0049186195,-0.2
452,0.004883031,-0.2
453,0.004879345,-0.2
454,0.004863334,-0.2
455,0.0048488025,-0.2
456,0.0048450604,-0.2
457,0.004835692,-0.2
458,0.0048264563,-0.2
459,0.0048155123,-0.2
460,0.0048027546,-0.2
461,0.004787906,-0.2
462,0.004783738,-0.2
463,0.0047567664,-0.2
464,0.0047531594,-0.2
465,0.004743278,-0.2
466,0.004735351,-0.2
467,0.0047317375,-0.2
468,0.0047070193,-0.2
469,0.004692935,-0.2
470,0.004685608,-0.2
471,0.004677353,-0.2
472,0.0046594557,-0.2
473,0.0046479423,-0.2
474,0.0046346537,-0.2
475,0.00461527,-0.2
476,0.0046092495,-0.2
477,0.0045968224,-0.2
478,0.004593582,-0.2
479,0.0045753685,-0.2
480,0.004560869,-0.2
481,0.004545888,-0.2
482,0.004543514,-0.2
483,0.0045283274,-0.2
484,0.004520751,-0.2
485,0.004501745,-0.2
486,0.004500157,-0.2
487,0.0044882796,-0.2
488,0.0044666827,-0.2
489,0.004454947,-0.2
490,0.004442255,-0.2
491,0.0044379225,-0.2
492,0.0044290996,-0.2
493,0.0044153924,-0.2
494,0.004396939,-0.2
495,0.0043924917,-0.2
496,0.004388648,-0.2
497,0.0043555833,-0.2
498,0.0043497845,-0.2
499,0.004336852,-0.2
500,0.0043318328,-0.2
501,0.0043288255,-0.2
502,0.004319403,-0.2
503,0.0043084794,-0.2
504,0.0042918543,-0.2
505,0.0042729503,-0.2
506,0.00426794,-0.2
507,0.004257437,-0.2
508,0.0042431625,-0.2
509,0.0042296345,-0.2
510,0.0042179734,-0.2
511,0.0042088684,-0.2
512,0.00420774,-0.2
513,0.0041973856,-0.2
514,0.004186515,-0.2
515,0.004176972,-0.2
516,0.004161782,-0.2
517,0.004140952,-0.2
518,0.004132198,-0.2
519,0.0041211373,-0.2
520,0.004117487,-0.2
521,0.0041063908,-0.2
522,0.0040891254,-0.2
523,0.0040811007,-0.2
524,0.0040654875,-0.2
525,0.0040490204,-0.2
526,0.0040456336,-0.2
527,0.0040334845,-0.2
528,0.0040191147,-0.2
529,0.0040101227,-0.2
530,0.0039992263,-0.2
531,0.00398836,-0.2
532,0.003978487,-0.2
533,0.0039694062,-0.2
534,0.0039637918,-0.2
535,0.0039516953,-0.2
536,0.003941933,-0.2
537,0.003929295,-0.2
538,0.0039137034,-0.2
539,0.003906754,-0.2
540,0.0039026558,-0.2
541,0.003885033,-0.2
542,0.0038806153,-0.2
543,0.0038758651,-0.2
544,0.0038636858,-0.2
545,0.0038464186,-0.2
546,0.0038366024,-0.2
547,0.0038319912,-0.2
548,0.0038108565,-0.2
549,0.00380587,-0.2
550,0.0037906533,-0.2
551,0.0037821075,-0.2
552,0.0037773007,-0.2
553,0.0037635742,-0.2
554,0.0037517042,-0.2
555,0.0037457785,-0.2
556,0.0037273846,-0.2
557,0.0037235578,-0.2
558,0.0037123438,-0.2
559,0.0036978326,-0.2
560,0.0036876034,-0.2
561,0.0036843484,-0.2
562,0.00367589,-0.2
563,0.0036608595,-0.2
564,0.0036569282,-0.2
565,0.0036511654,-0.2
566,0.0036381076,-0.2
567,0.003630122,-0.2
568,0.0036183796,-0.2
569,0.0036099118,-0.2
570,0.0035937577,-0.2
571,0.0035853013,-0.2
572,0.003564819,-0.2
573,0.003562515,-0.2
574,0.0035571458,-0.2
575,0.003540102,-0.2
576,0.0035346383,-0.2
577,0.0035159972,-0.2
578,0.0035044057,-0.2
579,0.0034996092,-0.2
580,0.003489502,-0.2
581,0.0034785038,-0.2
582,0.0034754663,-0.2
583,0.0034607893,-0.2
584,0.0034500195,-0.2
585,0.0034491369,-0.2
586,0.0034382886,-0.2
587,0.0034335402,-0.2
588,0.0034133848,-0.2
589,0.0034110013,-0.2
590,0.003402976,-0.2
591,0.0033882717,-0.2
592,0.0033822674,-0.2
593,0.003371204,-0.2
594,0.0033655285,-0.2
595,0.003356607,-0.2
596,0.0033426888,-0.2
597,0.0033300866,-0.2
598,0.003323728,-0.2
599,0.0033073602,-0.2
600,0.003295558,-0.2
601,0.0032860963,-0.2
602,0.0032821023,-0.2
603,0.0032781037,-0.2
604,0.003266138,-0.2
605,0.0032638581,-0.2
606,0.0032466378,-0.2
607,0.0032422289,-0.2
608,0.0032332607,-0.2
609,0.0032183456,-0.2
610,0.0032000553,-0.2
611,0.0031907163,-0.2
612,0.0031778675,-0.2
613,0.003175565,-0.2
614,0.0031671682,-0.2
615,0.0031627328,-0.2
616,0.0031277253,-0.2
617,0.0031195558,-0.2
618,0.003107416,-0.2
619,0.0031003742,-0.2
620,0.0030936261,-0.2
621,0.0030913262,-0.2
622,0.0030758916,-0.2
623,0.003075351,-0.2
624,0.0030705698,-0.2
625,0.0030547522,-0.2
626,0.0030498703,-0.2
627,0.0030379263,-0.2
628,0.0030313085,-0.2
629,0.0030163901,-0.2
630,0.0030127654,-0.2
631,0.003003819,-0.2
632,0.0029886046,-0.2
633,0.0029875508,-0.2
634,0.0029797738,-0.2
635,0.0029734906,-0.2
636,0.0029686291,-0.2
637,0.002963897,-0.2
638,0.0029485403,-0.2
639,0.0029349604,-0.2
640,0.0029224828,-0.2
641,0.0029127202,-0.2
642,0.002902774,-0.2
643,0.0029007336,-0.2
644,0.0028910134,-0.2
645,0.0028728272,-0.2
646,0.0028669932,-0.2
647,0.0028591035,-0.2
648,0.0028479993,-0.2
649,0.0028455302,-0.2
650,0.0028353953,-0.2
651,0.002830332,-0.2
652,0.0028195658,-0.2
653,0.0028163488,-0.2
654,0.0028080977,-0.2
655,0.002799551,-0.2
656,0.0027901274,-0.2
657,0.002771565,-0.2
658,0.0027655414,-0.2
659,0.0027590971,-0.2
660,0.002740215,-0.2
661,0.0027371477,-0.2
662,0.0027296937,-0.2
663,0.0027292387,-0.2
664,0.0027170556,-0.2
665,0.0027143671,-0.2
666,0.002709061,-0.2
667,0.0026934883,-0.2
668,0.0026841827,-0.2
669,0.0026775147,-0.2
670,0.0026735351,-0.2
671,0.002664982,-0.2
672,0.0026451875,-0.2
673,0.0026412124,-0.2
674,0.002628597,-0.2
675,0.002624331,-0.2
676,0.0026191694,-0.2
677,0.0026139896,-0.2
678,0.0026002119,-0.2
679,0.0025901017,-0.2
680,0.0025802855,-0.2
681,0.0025753132,-0.2
682,0.0025701518,-0.2
683,0.0025575794,-0.2
684,0.002545575,-0.2
685,0.002536608,-0.2
686,0.0025305476,-0.2
687,0.002523825,-0.2
688,0.0025146974,-0.2
689,0.0025062144,-0.2
690,0.002501457,-0.2
691,0.0024991196,-0.2
692,0.0024858166,-0.2
693,0.0024741874,-0.2
694,0.0024672416,-0.2
695,0.0024618194,-0.2
696,0.0024487062,-0.2
697,0.0024437227,-0.2
698,0.0024418007,-0.2
699,0.0024298364,-0.2
700,0.002418334,-0.2
701,0.0024120195,-0.2
702,0.0024098386,-0.2
703,0.0023956334,-0.2
704,0.002388951,-0.2
705,0.0023849066,-0.2
706,0.0023801697,-0.2
707,0.0023674618,-0.2
708,0.0023546254,-0.2
709,0.002344101,-0.2
710,0.002336116,-0.2
711,0.002326082,-0.2
712,0.0023193033,-0.2
713,0.002305997,-0.2
714,0.0022992177,-0.2
715,0.002294592,-0.2
716,0.0022837697,-0.2
717,0.002280278,-0.2
718,0.002271248,-0.2
719,0.0022619949,-0.2
720,0.0022576533,-0.2
721,0.002241697,-0.2
722,0.0022361183,-0.2
723,0.0022302556,-0.2
724,0.0022215485,-0.2
725,0.002217121,-0.2
726,0.0022026938,-0.2
727,0.0021994144,-0.2
728,0.0021941778,-0.2
729,0.0021887661,-0.2
730,0.0021843817,-0.2
731,0.002172421,-0.2
732,0.002169492,-0.2
733,0.00216001,-0.2
734,0.0021558038,-0.2
735,0.0021418678,-0.2
736,0.0021328942,-0.2
737,0.0021275685,-0.2
738,0.0021175419,-0.2
739,0.0021097695,-0.2
740,0.0021042482,-0.2
741,0.0020966984,-0.2
742,0.0020908087,-0.2
743,0.0020774289,-0.2
744,0.0020761627,-0.2
745,0.002061256,-0.2
746,0.0020579088,-0.2
747,0.0020557404,-0.2
748,0.0020492522,-0.2
749,0.0020313293,-0.2
750,0.002030035,-0.2
751,0.0020202056,-0.2
752,0.002013927,-0.2
753,0.0020007624,-0.2
754,0.0019982678,-0.2
755,0.0019946944,-0.2
756,0.001991877,-0.2
757,0.0019779801,-0.2
758,0.0019668296,-0.2
759,0.001962741,-0.2
760,0.0019594615,-0.2
761,0.0019570624,-0.2
762,0.0019458182,-0.2
763,0.0019401158,-0.2
764,0.0019301036,-0.2
765,0.0019252521,-0.2
766,0.0019146301,-0.2
767,0.0019097374,-0.2
768,0.0019003593,-0.2
769,0.0018941018,-0.2
770,0.0018887017,-0.2
771,0.0018774179,-0.2
772,0.0018726233,-0.2
773,0.0018598064,-0.2
774,0.0018543889,-0.2
775,0.0018462088,-0.2
776,0.0018449796,-0.2
777,0.0018392343,-0.2
778,0.0018292593,-0.2
779,0.0018249868,-0.2
780,0.0018183569,-0.2
781,0.001809839,-0.2
782,0.0018021358,-0.2
783,0.001793999,-0.2
784,0.001791419,-0.2
785,0.0017827203,-0.2
786,0.0017696362,-0.2
787,0.0017669374,-0.2
788,0.0017634699,-0.2
789,0.0017544265,-0.2
790,0.0017517683,-0.2
791,0.0017431275,-0.2
792,0.0017401492,-0.2
793,0.0017281055,-0.2
794,0.0017242215,-0.2
795,0.0017156868,-0.2
796,0.0016979295,-0.2
797,0.0016912397,-0.2
798,0.0016873312,-0.2
799,0.0016854135,-0.2
800,0.0016783766,-0.2
801,0.0016752741,-0.2
802,0.0016633268,-0.2
803,0.0016574753,-0.2
804,0.001647276,-0.2
805,0.0016415864,-0.2
806,0.0016397445,-0.2
807,0.0016298376,-0.2
808,0.001627115,-0.2
809,0.0016241962,-0.2
810,0.0016212987,-0.2
811,0.0016089003,-0.2
812,0.0015954563,-0.2
813,0.0015870446,-0.2
814,0.0015843812,-0.2
815,0.0015736539,-0.2
816,0.0015658488,-0.2
817,0.0015612086,-0.2
818,0.0015535154,-0.2
819,0.0015465094,-0.2
820,0.0015447849,-0.2
821,0.0015371178,-0.2
822,0.0015281333,-0.2
823,0.0015214507,-0.2
824,0.00151825,-0.2
825,0.00151496,-0.2
826,0.0015107705,-0.2
827,0.0014993985,-0.2
828,0.0014916646,-0.2
829,0.0014841701,-0.2
830,0.0014785653,-0.2
831,0.0014621693,-0.2
832,0.001459786,-0.2
833,0.0014507367,-0.2
834,0.00144687,-0.2
835,0.0014344653,-0.2
836,0.0014318567,-0.2
837,0.0014293393,-0.2
838,0.0014221703,-0.2
839,0.0014144169,-0.2
840,0.001413682,-0.2
841,0.0014006391,-0.2
842,0.0013973423,-0.2
843,0.001390333,-0.2
844,0.0013869844,-0.2
845,0.001377839,-0.2
846,0.0013711186,-0.2
847,0.0013695302,-0.2
848,0.0013670328,-0.2
849,0.0013606028,-0.2
850,0.0013528626,-0.2
851,0.0013468674,-0.2
852,0.0013396968,-0.2
853,0.0013271528,-0.2
854,0.0013187525,-0.2
855,0.0013166668,-0.2
856,0.0013059222,-0.2
857,0.0013034275,-0.2
858,0.0012962917,-0.2
859,0.0012900297,-0.2
860,0.0012837929,-0.2
861,0.0012827655,-0.2
862,0.0012745748,-0.2
863,0.0012648538,-0.2
864,0.0012557417,-0.2
865,0.001253011,-0.2
866,0.001238331,-0.2
867,0.0012331326,-0.2
868,0.0012232541,-0.2
869,0.0012217044,-0.2
870,0.0012158374,-0.2
871,0.0012131463,-0.2
872,0.0012116332,-0.2
873,0.0012085054,-0.2
874,0.00120042,-0.2
875,0.0011983358,-0.2
876,0.0011844805,-0.2
877,0.0011824454,-0.2
878,0.0011813163,-0.2
879,0.001167137,-0.2
880,0.0011647341,-0.2
881,0.001159899,-0.2
882,0.0011490821,-0.2
883,0.0011442718,-0.2
884,0.0011410811,-0.2
885,0.0011318891,-0.2
886,0.0011274827,-0.2
887,0.0011196708,-0.2
888,0.0011127181,-0.2
889,0.0011071565,-0.2
890,0.0011035451,-0.2
891,0.0010971635,-0.2
892,0.0010918666,-0.2
893,0.0010894734,-0.2
894,0.001078066,-0.2
895,0.0010714205,-0.2
896,0.0010690388,-0.2
897,0.0010661114,-0.2
898,0.001058874,-0.2
899,0.0010508939,-0.2
900,0.0010429828,-0.2
901,0.0010345441,-0.2
902,0.0010245492,-0.2
903,0.0010206454,-0.2
904,0.0010096346,-0.2
905,0.0010026494,-0.2
906,0.0010003147,-0.2
907,0.0009962441,-0.2
908,0.0009952068,-0.2
909,0.0009923015,-0.2
910,0.0009818281,-0.2
911,0.00097347406,-0.2
912,0.0009650417,-0.2
913,0.0009626992,-0.2
914,0.0009547539,-0.2
915,0.00094696134,-0.2
916,0.0009435087,-0.2
917,0.0009362313,-0.2
918,0.0009304323,-0.2
919,0.00092672755,-0.2
920,0.0009188252,-0.2
921,0.0009105535,-0.2
922,0.0009096465,-0.2
923,0.0009039385,-0.2
924,0.00089450495,-0.2
925,0.0008910759,-0.2
926,0.0008902386,-0.2
927,0.00088396,-0.2
928,0.0008752938,-0.2
929,0.00087289227,-0.2
930,0.0008631029,-0.2
931,0.00086018373,-0.2
932,0.00085741724,-0.2
933,0.000852786,-0.2
934,0.0008455805,-0.2
935,0.0008358249,-0.2
936,0.0008256344,-0.2
937,0.0008190815,-0.2
938,0.0008135684,-0.2
939,0.0008094278,-0.2
940,0.00080219447,-0.2
941,0.0007980257,-0.2
942,0.00079311006,-0.2
943,0.0007852188,-0.2
944,0.00078494375,-0.2
945,0.0007797867,-0.2
946,0.00076622085,-0.2
947,0.00076238613,-0.2
948,0.00075701915,-0.2
949,0.0007540663,-0.2
950,0.0007485935,-0.2
951,0.00074532005,-0.2
952,0.0007431041,-0.2
953,0.00073488976,-0.2
954,0.0007270061,-0.2
955,0.00072591234,-0.2
956,0.00071891135,-0.2
957,0.00071504497,-0.2
958,0.0007057047,-0.2
959,0.0006954495,-0.2
960,0.0006908331,-0.2
961,0.00068577554,-0.2
962,0.0006841667,-0.2
963,0.0006733797,-0.2
964,0.00066759926,-0.2
965,0.00066001277,-0.2
966,0.0006584887,-0.2
967,0.0006478268,-0.2
968,0.0006427966,-0.2
969,0.00063695386,-0.2
970,0.0006336598,-0.2
971,0.0006290919,-0.2
972,0.0006243287,-0.2
973,0.0006187406,-0.2
974,0.0006151729,-0.2
975,0.0006071535,-0.2
976,0.0005992528,-0.2
977,0.0005919439,-0.2
978,0.00058945356,-0.2
979,0.00058085646,-0.2
980,0.0005769467,-0.2
981,0.00056547415,-0.2
982,0.0005591407,-0.2
983,0.00055490155,-0.2
984,0.000546973,-0.2
985,0.0005401668,-0.2
986,0.0005354137,-0.2
987,0.0005313243,-0.2
988,0.00052531576,-0.2
989,0.00051548687,-0.2
990,0.0005126787,-0.2
991,0.00050034357,-0.2
992,0.0004969357,-0.2
993,0.00048480954,-0.2
994,0.0004771145,-0.2
995,0.00047023655,-0.2
996,0.00046007306,-0.2
997,0.00044182464,-0.2
998,0.00042241986,-0.2
999,0.0004211405,-0.2
1000,1.1937015e-15,-0.2
1,0.013386246,-0.3
2,0.012281168,-0.3
3,0.010673054,-0.3
4,0.010074114,-0.3
5,0.009903613,-0.3
6,0.009776943,-0.3
7,0.009697454,-0.3
8,0.009440309,-0.3
9,0.009268521,-0.3
10,0.009193538,-0.3
11,0.009075354,-0.3
12,0.008983597,-0.3
13,0.008973379,-0.3
14,0.008817453,-0.3
15,0.008714389,-0.3
16,0.008677483,-0.3
17,0.008562569,-0.3
18,0.0085068615,-0.3
19,0.008487836,-0.3
20,0.008432676,-0.3
21,0.0083496515,-0.3
22,0.0082634995,-0.3
23,0.008227656,-0.3
24,0.008210588,-0.3
25,0.008147171,-0.3
26,0.008079425,-0.3
27,0.00804888,-0.3
28,0.0079961745,-0.3
29,0.007962343,-0.3
30,0.007929409,-0.3
31,0.007914898,-0.3
32,0.007901851,-0.3
33,0.00784745,-0.3
34,0.007792226,-0.3
35,0.0077630496,-0.3
36,0.0077420394,-0.3
37,0.0076625054,-0.3
38,0.0076401667,-0.3
39,0.007610034,-0.3
40,0.0075708553,-0.3
41,0.007552828,-0.3
42,0.0075429217,-0.3
43,0.007526909,-0.3
44,0.0074703293,-0.3
45,0.0074478784,-0.3
46,0.007419464,-0.3
47,0.007383579,-0.3
48,0.007347163,-0.3
49,0.007338567,-0.3
50,0.0072604306,-0.3
51,0.007246117,-0.3
52,0.007221994,-0.3
53,0.0072056656,-0.3
54,0.007172189,-0.3
55,0.0071497266,-0.3
56,0.0071368036,-0.3
57,0.0071072024,-0.3
58,0.007075434,-0.3
59,0.0070558074,-0.3
60,0.0070229173,-0.3
61,0.006998023,-0.3
62,0.0069815894,-0.3
63,0.0069639627,-0.3
64,0.006954417,-0.3
65,0.0069221663,-0.3
66,0.006863713,-0.3
67,0.0068465467,-0.3
68,0.006819866,-0.3
69,0.006790237,-0.3
70,0.006767414,-0.3
71,0.0067460667,-0.3
72,0.0067368895,-0.3
73,0.006714206,-0.3
74,0.006681285,-0.3
75,0.006669693,-0.3
76,0.006640595,-0.3
77,0.0066124336,-0.3
78,0.0066019613,-0.3
79,0.006582003,-0.3
80,0.006563699,-0.3
81,0.0065467576,-0.3
82,0.006515457,-0.3
83,0.006489612,-0.3
84,0.0064774887,-0.3
85,0.0064540696,-0.3
86,0.0064386856,-0.3
87,0.0064250967,-0.3
88,0.0064003025,-0.3
89,0.006362541,-0.3
90,0.006347336,-0.3
91,0.0063341674,-0.3
92,0.0063225534,-0.3
93,0.006289056,-0.3
94,0.006273628,-0.3
95,0.006262403,-0.3
96,0.006249684,-0.3
97,0.006245215,-0.3
98,0.0062120603,-0.3
99,0.00619724,-0.3
100,0.0061959256,-0.3
101,0.006184013,-0.3
102,0.0061661224,-0.3
103,0.0061526685,-0.3
104,0.006125196,-0.3
105,0.0061046267,-0.3
106,0.0060890308,-0.3
107,0.0060736644,-0.3
108,0.0060509257,-0.3
109,0.0060399934,-0.3
110,0.0060255253,-0.3
111,0.0060058823,-0.3
112,0.0059813526,-0.3
113,0.005966655,-0.3
114,0.0059607546,-0.3
115,0.005939998,-0.3
116,0.0059337225,-0.3
117,0.005912646,-0.3
118,0.0058747754,-0.3
119,0.005859382,-0.3
120,0.005842476,-0.3
121,0.005837528,-0.3
122,0.0058051576,-0.3
123,0.005798523,-0.3
124,0.00579029,-0.3
125,0.0057613314,-0.3
126,0.0057357564,-0.3
127,0.0057320744,-0.3
128,0.0057252143,-0.3
129,0.0056799995,-0.3
130,0.005651561,-0.3
131,0.005643374,-0.3
132,0.0056354473,-0.3
133,0.0056304443,-0.3
134,0.0056045647,-0.3
135,0.00558914,-0.3
136,0.0055768867,-0.3
137,0.0055678957,-0.3
138,0.005546062,-0.3
139,0.005544186,-0.3
140,0.005530094,-0.3
141,0.00551419,-0.3
142,0.005502149,-0.3
143,0.005473276,-0.3
144,0.0054633096,-0.3
145,0.005449236,-0.3
146,0.005419404,-0.3
147,0.005407887,-0.3
148,0.0054037613,-0.3
149,0.0053931344,-0.3
150,0.0053657168,-0.3
151,0.005362192,-0.3
152,0.005344436,-0.3
153,0.005334098,-0.3
154,0.0053250776,-0.3
155,0.005316645,-0.3
156,0.005297176,-0.3
157,0.005286942,-0.3
158,0.005274896,-0.3
159,0.00525954,-0.3
160,0.0052556787,-0.3
161,0.005235353,-0.3
162,0.005215201,-0.3
163,0.0052061942,-0.3
164,0.0051844055,-0.3
165,0.0051642726,-0.3
166,0.0051465444,-0.3
167,0.0051431004,-0.3
168,0.0051190956,-0.3
169,0.0051145707,-0.3
170,0.005109188,-0.3
171,0.0050979373,-0.3
172,0.00507734,-0.3
173,0.0050626555,-0.3
174,0.00505191,-0.3
175,0.005049193,-0.3
176,0.0050156284,-0.3
177,0.0050120796,-0.3
178,0.004997877,-0.3
179,0.004980664,-0.3
180,0.004977413,-0.3
181,0.004968871,-0.3
182,0.0049501844,-0.3
183,0.004935934,-0.3
184,0.0049260394,-0.3
185,0.004924914,-0.3
186,0.0049169706,-0.3
187,0.004899877,-0.3
188,0.004887535,-0.3
189,0.0048755775,-0.3
190,0.004852165,-0.3
191,0.0048346133,-0.3
192,0.004817846,-0.3
193,0.0048063872,-0.3
194,0.004798747,-0.3
195,0.0047795805,-0.3
196,0.0047681206,-0.3
197,0.0047577987,-0.3
198,0.004745306,-0.3
199,0.004727864,-0.3
200,0.0047246483,-0.3
201,0.0047165477,-0.3
202,0.004707357,-0.3
203,0.0046914644,-0.3
204,0.0046765753,-0.3
205,0.004666101,-0.3
206,0.0046554566,-0.3
207,0.00464423,-0.3
208,0.004640264,-0.3
209,0.004638232,-0.3
210,0.004622107,-0.3
211,0.0046154195,-0.3
212,0.004610707,-0.3
213,0.0045993454,-0.3
214,0.0045845993,-0.3
215,0.0045780214,-0.3
216,0.0045543495,-0.3
217,0.0045493115,-0.3
218,0.004538418,-0.3
219,0.0045220265,-0.3
220,0.0045128027,-0.3
221,0.00450524,-0.3
222,0.0044766287,-0.3
223,0.004466721,-0.3
224,0.004451261,-0.3
225,0.00444079,-0.3
226,0.004430379,-0.3
227,0.0044218246,-0.3
228,0.0044043693,-0.3
229,0.004403461,-0.3
230,0.0043997625,-0.3
231,0.0043874225,-0.3
232,0.0043786583,-0.3
233,0.0043689725,-0.3
234,0.0043510604,-0.3
235,0.0043373234,-0.3
236,0.004325197,-0.3
237,0.0043058684,-0.3
238,0.0042989994,-0.3
239,0.004291041,-0.3
240,0.004289419,-0.3
241,0.004278595,-0.3
242,0.004261847,-0.3
243,0.0042534824,-0.3
244,0.0042339666,-0.3
245,0.0042296434,-0.3
246,0.004226152,-0.3
247,0.0042130593,-0.3
248,0.0042010597,-0.3
249,0.004190482,-0.3
250,0.0041867103,-0.3
251,0.0041637043,-0.3
252,0.0041568377,-0.3
253,0.0041377572,-0.3
254,0.0041292673,-0.3
255,0.00412027,-0.3
256,0.004113038,-0.3
257,0.0041018208,-0.3
258,0.00409427,-0.3
259,0.0040846723,-0.3
260,0.004078062,-0.3
261,0.004067652,-0.3
262,0.0040625036,-0.3
263,0.004053164,-0.3
264,0.004038397,-0.3
265,0.0040370254,-0.3
266,0.0040152245,-0.3
267,0.0040040766,-0.3
268,0.0039983965,-0.3
269,0.0039972235,-0.3
270,0.0039921775,-0.3
271,0.0039747586,-0.3
272,0.003964325,-0.3
273,0.0039567403,-0.3
274,0.0039484287,-0.3
275,0.003946897,-0.3
276,0.003928638,-0.3
277,0.0039249416,-0.3
278,0.0039205775,-0.3
279,0.003911113,-0.3
280,0.0038824598,-0.3
281,0.003874115,-0.3
282,0.003862572,-0.3
283,0.0038567758,-0.3
284,0.0038504803,-0.3
285,0.003845375,-0.3
286,0.003840338,-0.3
287,0.0038299505,-0.3
288,0.0038091594,-0.3
289,0.003799874,-0.3
290,0.0037874137,-0.3
291,0.003784776,-0.3
292,0.0037782541,-0.3
293,0.0037669314,-0.3
294,0.0037543303,-0.3
295,0.003738681,-0.3
296,0.0037330438,-0.3
297,0.0037181051,-0.3
298,0.0037071921,-0.3
299,0.0036948351,-0.3
300,0.0036915299,-0.3
301,0.0036830609,-0.3
302,0.003671931,-0.3
303,0.0036674903,-0.3
304,0.003659484,-0.3
305,0.0036575792,-0.3
306,0.003650994,-0.3
307,0.0036423358,-0.3
308,0.0036346763,-0.3
309,0.0036318523,-0.3
310,0.0036231864,-0.3
311,0.0036134743,-0.3
312,0.0035981187,-0.3
313,0.0035909507,-0.3
314,0.0035784564,-0.3
315,0.003569341,-0.3
316,0.0035612576,-0.3
317,0.0035555311,-0.3
318,0.0035520373,-0.3
319,0.0035442763,-0.3
320,0.0035324527,-0.3
321,0.0035258248,-0.3
322,0.003515761,-0.3
323,0.0035089955,-0.3
324,0.003506158,-0.3
325,0.003494766,-0.3
326,0.0034830458,-0.3
327,0.0034825953,-0.3
328,0.0034738204,-0.3
329,0.0034603642,-0.3
330,0.0034577986,-0.3
331,0.0034437994,-0.3
332,0.0034386534,-0.3
333,0.0034298843,-0.3
334,0.0034109503,-0.3
335,0.0034067503,-0.3
336,0.0033967986,-0.3
337,0.003383064,-0.3
338,0.0033766758,-0.3
339,0.0033590733,-0.3
340,0.0033543028,-0.3
341,0.0033482902,-0.3
342,0.003347251,-0.3
343,0.0033268414,-0.3
344,0.0033255022,-0.3
345,0.0033190004,-0.3
346,0.0033037912,-0.3
347,0.0033005115,-0.3
348,0.003295624,-0.3
349,0.003286253,-0.3
350,0.0032746184,-0.3
351,0.003267884,-0.3
352,0.0032512657,-0.3
353,0.0032460638,-0.3
354,0.0032410007,-0.3
355,0.0032345317,-0.3
356,0.0032278236,-0.3
357,0.003222006,-0.3
358,0.0032120973,-0.3
359,0.00320606,-0.3
360,0.0031980812,-0.3
361,0.0031956215,-0.3
362,0.0031826065,-0.3
363,0.0031717555,-0.3
364,0.0031687268,-0.3
365,0.0031647766,-0.3
366,0.0031508913,-0.3
367,0.0031494342,-0.3
368,0.0031371282,-0.3
369,0.0031287677,-0.3
370,0.0031212957,-0.3
371,0.0031091508,-0.3
372,0.0031060323,-0.3
373,0.0031048486,-0.3
374,0.0030921763,-0.3
375,0.0030839434,-0.3
376,0.0030769524,-0.3
377,0.00307229,-0.3
378,0.003061482,-0.3
379,0.0030572836,-0.3
380,0.0030501361,-0.3
381,0.0030417931,-0.3
382,0.0030279935,-0.3
383,0.0030267963,-0.3
384,0.003019423,-0.3
385,0.0030070697,-0.3
386,0.0030035633,-0.3
387,0.0029940666,-0.3
388,0.0029803426,-0.3
389,0.0029730392,-0.3
390,0.0029697407,-0.3
391,0.0029626472,-0.3
392,0.002958447,-0.3
393,0.002955244,-0.3
394,0.0029428552,-0.3
395,0.0029384042,-0.3
396,0.0029271871,-0.3
397,0.0029205647,-0.3
398,0.0029089143,-0.3
399,0.0029009795,-0.3
400,0.0028932807,-0.3
401,0.0028898262,-0.3
402,0.0028802995,-0.3
403,0.0028758987,-0.3
404,0.002872699,-0.3
405,0.002869337,-0.3
406,0.0028612094,-0.3
407,0.0028525612,-0.3
408,0.0028408023,-0.3
409,0.0028305312,-0.3
410,0.0028250795,-0.3
411,0.0028230771,-0.3
412,0.002815436,-0.3
413,0.0028048959,-0.3
414,0.002798939,-0.3
415,0.0027943533,-0.3
416,0.0027856065,-0.3
417,0.0027802319,-0.3
418,0.0027730477,-0.3
419,0.0027676339,-0.3
420,0.0027644946,-0.3
421,0.0027586417,-0.3
422,0.0027509402,-0.3
423,0.0027492025,-0.3
424,0.0027330199,-0.3
425,0.0027259719,-0.3
426,0.0027232692,-0.3
427,0.0027183203,-0.3
428,0.0027083172,-0.3
429,0.0026998264,-0.3
430,0.002688708,-0.3
431,0.0026851117,-0.3
432,0.0026738232,-0.3
433,0.0026711433,-0.3
434,0.002669691,-0.3
435,0.0026638135,-0.3
436,0.00266086,-0.3
437,0.0026521035,-0.3
438,0.0026425372,-0.3
439,0.0026349213,-0.3
440,0.0026243627,-0.3
441,0.0026101961,-0.3
442,0.0026053651,-0.3
443,0.0026030499,-0.3
444,0.0025981243,-0.3
445,0.002587598,-0.3
446,0.0025797498,-0.3
447,0.0025760306,-0.3
448,0.002570727,-0.3
449,0.0025643297,-0.3
450,0.0025609534,-0.3
451,0.0025521417,-0.3
452,0.0025435784,-0.3
453,0.002537234,-0.3
454,0.002535352,-0.3
455,0.0025286193,-0.3
456,0.002516241,-0.3
457,0.0025103488,-0.3
458,0.0025047495,-0.3
459,0.0025012095,-0.3
460,0.0024942036,-0.3
461,0.0024867237,-0.3
462,0.002483177,-0.3
463,0.0024794452,-0.3
464,0.0024727955,-0.3
465,0.0024630087,-0.3
466,0.0024616148,-0.3
467,0.0024521502,-0.3
468,0.0024501348,-0.3
469,0.002442638,-0.3
470,0.0024377867,-0.3
471,0.0024351156,-0.3
472,0.002419135,-0.3
473,0.0024151802,-0.3
474,0.0024000362,-0.3
475,0.002398135,-0.3
476,0.0023971628,-0.3
477,0.0023917141,-0.3
478,0.0023792658,-0.3
479,0.002374078,-0.3
480,0.002367538,-0.3
481,0.0023636508,-0.3
482,0.0023571432,-0.3
483,0.00235202,-0.3
484,0.0023496295,-0.3
485,0.0023413377,-0.3
486,0.0023373333,-0.3
487,0.0023299423,-0.3
488,0.0023237304,-0.3
489,0.0023180952,-0.3
490,0.0023093051,-0.3
491,0.002293068,-0.3
492,0.0022917797,-0.3
493,0.0022872188,-0.3
494,0.0022856381,-0.3
495,0.0022793952,-0.3
496,0.0022738127,-0.3
497,0.0022708215,-0.3
498,0.0022637625,-0.3
499,0.0022552423,-0.3
500,0.0022454099,-0.3
501,0.0022434033,-0.3
502,0.0022417658,-0.3
503,0.0022273338,-0.3
504,0.0022218155,-0.3
505,0.0022183277,-0.3
506,0.0022141833,-0.3
507,0.0022042964,-0.3
508,0.0021999835,-0.3
509,0.0021963299,-0.3
510,0.0021910327,-0.3
511,0.0021851608,-0.3
512,0.0021735735,-0.3
513,0.002169745,-0.3
514,0.0021657478,-0.3
515,0.0021629208,-0.3
516,0.002156139,-0.3
517,0.0021515146,-0.3
518,0.002144244,-0.3
519,0.0021396892,-0.3
520,0.002134685,-0.3
521,0.0021300549,-0.3
522,0.0021204483,-0.3
523,0.0021142045,-0.3
524,0.0021084822,-0.3
525,0.0021040628,-0.3
526,0.0020963405,-0.3
527,0.0020925887,-0.3
528,0.0020822673,-0.3
529,0.0020804214,-0.3
530,0.0020763066,-0.3
531,0.0020664283,-0.3
532,0.0020643163,-0.3
533,0.0020555542,-0.3
534,0.002050664,-0.3
535,0.0020460438,-0.3
536,0.0020384304,-0.3
537,0.0020317421,-0.3
538,0.0020296215,-0.3
539,0.0020219923,-0.3
540,0.002017166,-0.3
541,0.0020142486,-0.3
542,0.0020108416,-0.3
543,0.0020044416,-0.3
544,0.0019975102,-0.3
545,0.001995618,-0.3
546,0.0019943647,-0.3
547,0.0019802945,-0.3
548,0.0019741522,-0.3
549,0.0019701677,-0.3
550,0.0019636499,-0.3
551,0.0019555497,-0.3
552,0.0019538885,-0.3
553,0.0019437408,-0.3
554,0.0019420114,-0.3
555,0.001935039,-0.3
556,0.001932086,-0.3
557,0.001927913,-0.3
558,0.0019253854,-0.3
559,0.0019205034,-0.3
560,0.0019184003,-0.3
561,0.001911789,-0.3
562,0.0019089598,-0.3
563,0.0019017367,-0.3
564,0.0018905605,-0.3
565,0.0018892266,-0.3
566,0.0018815197,-0.3
567,0.0018746016,-0.3
568,0.0018724734,-0.3
569,0.0018656346,-0.3
570,0.0018593816,-0.3
571,0.0018577413,-0.3
572,0.0018519614,-0.3
573,0.0018454356,-0.3
574,0.0018407622,-0.3
575,0.0018306738,-0.3
576,0.0018266297,-0.3
577,0.0018207502,-0.3
578,0.0018166968,-0.3
579,0.00180852,-0.3
580,0.0018070665,-0.3
581,0.0018003316,-0.3
582,0.0017966944,-0.3
583,0.0017907617,-0.3
584,0.0017837816,-0.3
585,0.0017812551,-0.3
586,0.0017801316,-0.3
587,0.001775213,-0.3
588,0.001769884,-0.3
589,0.0017664869,-0.3
590,0.0017609865,-0.3
591,0.0017546164,-0.3
592,0.0017503063,-0.3
593,0.0017462374,-0.3
594,0.0017347245,-0.3
595,0.0017300103,-0.3
596,0.0017281164,-0.3
597,0.0017259767,-0.3
598,0.0017223684,-0.3
599,0.0017159448,-0.3
600,0.0017035659,-0.3
601,0.0017020544,-0.3
602,0.0016933869,-0.3
603,0.0016894052,-0.3
604,0.001686659,-0.3
605,0.001685518,-0.3
606,0.0016809633,-0.3
607,0.0016696575,-0.3
608,0.001666178,-0.3
609,0.00166158,-0.3
610,0.0016568291,-0.3
611,0.0016512843,-0.3
612,0.0016463869,-0.3
613,0.0016431968,-0.3
614,0.00163639,-0.3
615,0.0016315747,-0.3
616,0.0016255693,-0.3
617,0.0016136414,-0.3
618,0.001610172,-0.3
619,0.0016053574,-0.3
620,0.0015977182,-0.3
621,0.0015945954,-0.3
622,0.001593649,-0.3
623,0.0015876874,-0.3
624,0.0015862277,-0.3
625,0.0015803343,-0.3
626,0.0015736162,-0.3
627,0.0015706214,-0.3
628,0.0015665148,-0.3
629,0.001560617,-0.3
630,0.0015546439,-0.3
631,0.00154987,-0.3
632,0.001545417,-0.3
633,0.0015451403,-0.3
634,0.0015376596,-0.3
635,0.0015340403,-0.3
636,0.0015313328,-0.3
637,0.0015272007,-0.3
638,0.0015218467,-0.3
639,0.0015202396,-0.3
640,0.001507101,-0.3
641,0.001505303,-0.3
642,0.0015008008,-0.3
643,0.0014959441,-0.3
644,0.0014913307,-0.3
645,0.0014873276,-0.3
646,0.0014821908,-0.3
647,0.0014746964,-0.3
648,0.0014708738,-0.3
649,0.001469351,-0.3
650,0.0014618364,-0.3
651,0.0014584116,-0.3
652,0.0014525944,-0.3
653,0.0014499269,-0.3
654,0.001445231,-0.3
655,0.0014433038,-0.3
656,0.0014382807,-0.3
657,0.0014339389,-0.3
658,0.0014296343,-0.3
659,0.0014239451,-0.3
660,0.0014181444,-0.3
661,0.0014108057,-0.3
662,0.0014091372,-0.3
663,0.0014070864,-0.3
664,0.0013997062,-0.3
665,0.0013991853,-0.3
666,0.0013939337,-0.3
667,0.00139201,-0.3
668,0.0013865358,-0.3
669,0.0013828247,-0.3
670,0.0013760524,-0.3
671,0.0013710232,-0.3
672,0.0013681329,-0.3
673,0.0013592194,-0.3
674,0.0013582907,-0.3
675,0.0013549861,-0.3
676,0.0013524875,-0.3
677,0.0013497911,-0.3
678,0.001345529,-0.3
679,0.0013409163,-0.3
680,0.0013317498,-0.3
681,0.0013280144,-0.3
682,0.0013230244,-0.3
683,0.0013209311,-0.3
684,0.001313663,-0.3
685,0.0013085349,-0.3
686,0.0013073274,-0.3
687,0.0013048912,-0.3
688,0.0013020895,-0.3
689,0.0012956042,-0.3
690,0.0012903766,-0.3
691,0.0012898452,-0.3
692,0.0012858246,-0.3
693,0.0012797884,-0.3
694,0.0012736833,-0.3
695,0.0012701452,-0.3
696,0.0012622535,-0.3
697,0.0012604783,-0.3
698,0.0012570063,-0.3
699,0.0012518696,-0.3
700,0.0012487071,-0.3
701,0.0012435587,-0.3
702,0.0012415658,-0.3
703,0.0012356689,-0.3
704,0.0012327543,-0.3
705,0.0012307824,-0.3
706,0.0012219342,-0.3
707,0.0012166605,-0.3
708,0.0012111564,-0.3
709,0.0012104469,-0.3
710,0.0012055704,-0.3
711,0.001198877,-0.3
712,0.001195182,-0.3
713,0.0011894548,-0.3
714,0.0011875726,-0.3
715,0.0011817963,-0.3
716,0.0011770093,-0.3
717,0.0011766687,-0.3
718,0.0011731389,-0.3
719,0.0011704965,-0.3
720,0.0011645554,-0.3
721,0.0011546889,-0.3
722,0.0011535746,-0.3
723,0.001147301,-0.3
724,0.001145643,-0.3
725,0.0011445137,-0.3
726,0.0011404245,-0.3
727,0.0011330766,-0.3
728,0.0011298443,-0.3
729,0.0011272833,-0.3
730,0.0011236854,-0.3
731,0.0011214173,-0.3
732,0.0011188607,-0.3
733,0.0011168284,-0.3
734,0.0011038822,-0.3
735,0.0011023837,-0.3
736,0.0010979684,-0.3
737,0.0010949092,-0.3
738,0.0010889949,-0.3
739,0.0010843127,-0.3
740,0.0010814498,-0.3
741,0.0010787923,-0.3
742,0.0010764634,-0.3
743,0.0010684113,-0.3
744,0.001065351,-0.3
745,0.0010614529,-0.3
746,0.0010555285,-0.3
747,0.0010524999,-0.3
748,0.0010511135,-0.3
749,0.0010453841,-0.3
750,0.001041969,-0.3
751,0.0010403402,-0.3
752,0.0010374784,-0.3
753,0.0010288646,-0.3
754,0.00102712,-0.3
755,0.0010221954,-0.3
756,0.0010197238,-0.3
757,0.0010175935,-0.3
758,0.0010148955,-0.3
759,0.001010663,-0.3
760,0.0010086887,-0.3
761,0.0010045584,-0.3
762,0.0010041245,-0.3
763,0.0009976807,-0.3
764,0.0009926527,-0.3
765,0.0009912159,-0.3
766,0.0009854594,-0.3
767,0.000978581,-0.3
768,0.0009771577,-0.3
769,0.00097583904,-0.3
770,0.0009697885,-0.3
771,0.00096694456,-0.3
772,0.0009599211,-0.3
773,0.0009594149,-0.3
774,0.0009557209,-0.3
775,0.0009521905,-0.3
776,0.0009502361,-0.3
777,0.0009474332,-0.3
778,0.00094279024,-0.3
779,0.0009394521,-0.3
780,0.00093259185,-0.3
781,0.000931222,-0.3
782,0.0009259587,-0.3
783,0.00092473725,-0.3
784,0.00092210947,-0.3
785,0.0009184656,-0.3
786,0.0009102813,-0.3
787,0.00090760796,-0.3
788,0.0009049241,-0.3
789,0.00090176956,-0.3
790,0.0009003796,-0.3
791,0.00089414895,-0.3
792,0.0008923224,-0.3
793,0.000889645,-0.3
794,0.0008812891,-0.3
795,0.00088059256,-0.3
796,0.00087498344,-0.3
797,0.00087138603,-0.3
798,0.00086822675,-0.3
799,0.00086382247,-0.3
800,0.00086292345,-0.3
801,0.0008588879,-0.3
802,0.0008554856,-0.3
803,0.00085193024,-0.3
804,0.00084980385,-0.3
805,0.0008482974,-0.3
806,0.00084510935,-0.3
807,0.00083881686,-0.3
808,0.0008371188,-0.3
809,0.0008345631,-0.3
810,0.00082950754,-0.3
811,0.0008244641,-0.3
812,0.00082072755,-0.3
813,0.00081800163,-0.3
814,0.0008155608,-0.3
815,0.00080725696,-0.3
816,0.0008044844,-0.3
817,0.0008032155,-0.3
818,0.0007981116,-0.3
819,0.000796036,-0.3
820,0.0007954141,-0.3
821,0.00079335156,-0.3
822,0.00078669144,-0.3
823,0.0007834656,-0.3
824,0.00078118587,-0.3
825,0.00077775476,-0.3
826,0.00077670475,-0.3
827,0.0007702843,-0.3
828,0.00076637743,-0.3
829,0.0007630227,-0.3
830,0.00075824646,-0.3
831,0.00075239275,-0.3
832,0.00075008895,-0.3
833,0.0007476503,-0.3
834,0.00074524304,-0.3
835,0.0007382625,-0.3
836,0.00073637615,-0.3
837,0.00073519675,-0.3
838,0.0007305587,-0.3
839,0.0007274742,-0.3
840,0.00072474225,-0.3
841,0.00072310946,-0.3
842,0.00071856426,-0.3
843,0.00071654544,-0.3
844,0.0007127926,-0.3
845,0.00070873124,-0.3
846,0.0007047005,-0.3
847,0.00070296996,-0.3
848,0.0007010015,-0.3
849,0.00069763884,-0.3
850,0.00069618237,-0.3
851,0.0006922776,-0.3
852,0.0006871783,-0.3
853,0.00068343256,-0.3
854,0.00068072067,-0.3
855,0.0006751167,-0.3
856,0.0006721532,-0.3
857,0.0006712623,-0.3
858,0.00066527544,-0.3
859,0.00066044985,-0.3
860,0.000659324,-0.3
861,0.00065870024,-0.3
862,0.0006563157,-0.3
863,0.0006484723,-0.3
864,0.0006466956,-0.3
865,0.00064173504,-0.3
866,0.00063730334,-0.3
867,0.0006361861,-0.3
868,0.0006296654,-0.3
869,0.0006284466,-0.3
870,0.000625585,-0.3
871,0.00062267913,-0.3
872,0.00062179874,-0.3
873,0.00061992917,-0.3
874,0.00061823823,-0.3
875,0.0006150668,-0.3
876,0.00061001134,-0.3
877,0.0006085967,-0.3
878,0.00060487457,-0.3
879,0.0006018787,-0.3
880,0.00059787545,-0.3
881,0.0005955887,-0.3
882,0.0005911327,-0.3
883,0.00058546296,-0.3
884,0.00058368436,-0.3
885,0.00058266794,-0.3
886,0.0005781588,-0.3
887,0.00057386165,-0.3
888,0.00057263544,-0.3
889,0.00057081325,-0.3
890,0.00056784204,-0.3
891,0.0005640783,-0.3
892,0.0005606224,-0.3
893,0.00055926,-0.3
894,0.00055303104,-0.3
895,0.00055100996,-0.3
896,0.00054847554,-0.3
897,0.00054678286,-0.3
898,0.00054354215,-0.3
899,0.0005396603,-0.3
900,0.00053515943,-0.3
901,0.000528647,-0.3
902,0.0005252629,-0.3
903,0.00052478653,-0.3
904,0.00051741814,-0.3
905,0.0005158043,-0.3
906,0.0005142574,-0.3
907,0.00051333534,-0.3
908,0.00050991314,-0.3
909,0.0005085043,-0.3
910,0.00050541054,-0.3
911,0.0005002621,-0.3
912,0.0004966737,-0.3
913,0.0004939448,-0.3
914,0.00048870064,-0.3
915,0.00048556708,-0.3
916,0.00048351812,-0.3
917,0.0004795287,-0.3
918,0.00047770923,-0.3
919,0.00047549364,-0.3
920,0.0004700056,-0.3
921,0.00046788133,-0.3
922,0.00046647232,-0.3
923,0.00046231077,-0.3
924,0.00045975304,-0.3
925,0.00045758058,-0.3
926,0.0004567589,-0.3
927,0.00045175108,-0.3
928,0.00044813615,-0.3
929,0.00044748295,-0.3
930,0.00044401686,-0.3
931,0.00044182639,-0.3
932,0.00044108983,-0.3
933,0.00043773098,-0.3
934,0.00043311785,-0.3
935,0.00042768475,-0.3
936,0.00042306577,-0.3
937,0.00042112515,-0.3
938,0.00041895488,-0.3
939,0.00041556006,-0.3
940,0.00041367262,-0.3
941,0.0004102878,-0.3
942,0.0004054702,-0.3
943,0.00040288994,-0.3
944,0.00040126147,-0.3
945,0.00039876287,-0.3
946,0.0003935156,-0.3
947,0.0003895055,-0.3
948,0.00038797266,-0.3
949,0.0003862212,-0.3
950,0.00038440773,-0.3
951,0.0003807287,-0.3
952,0.0003801295,-0.3
953,0.0003762525,-0.3
954,0.0003738937,-0.3
955,0.00037175324,-0.3
956,0.000367152,-0.3
957,0.0003661208,-0.3
958,0.00036151303,-0.3
959,0.00035727854,-0.3
960,0.00035592244,-0.3
961,0.00035263345,-0.3
962,0.00034879448,-0.3
963,0.00034560598,-0.3
964,0.00034205642,-0.3
965,0.00033824402,-0.3
966,0.000337509,-0.3
967,0.00033368712,-0.3
968,0.0003288848,-0.3
969,0.00032691137,-0.3
970,0.00032464345,-0.3
971,0.00032229617,-0.3
972,0.00032071394,-0.3
973,0.00031790306,-0.3
974,0.00031531966,-0.3
975,0.00031113028,-0.3
976,0.00030787368,-0.3
977,0.00030356098,-0.3
978,0.00030335685,-0.3
979,0.00029775978,-0.3
980,0.00029522247,-0.3
981,0.0002897052,-0.3
982,0.0002873226,-0.3
983,0.00028470624,-0.3
984,0.00027962768,-0.3
985,0.0002779582,-0.3
986,0.0002741117,-0.3
987,0.0002728669,-0.3
988,0.0002680361,-0.3
989,0.00026461665,-0.3
990,0.00026350623,-0.3
991,0.00025645757,-0.3
992,0.00025433835,-0.3
993,0.00024806825,-0.3
994,0.00024419662,-0.3
995,0.00024131032,-0.3
996,0.00023726924,-0.3
997,0.00022733881,-0.3
998,0.00021604668,-0.3
999,0.0002159479,-0.3
1000,5.707775e-16,-0.3
1,0.011707482,-0.4
2,0.009809402,-0.4
3,0.007996089,-0.4
4,0.0071375826,-0.4
5,0.0070200707,-0.4
6,0.0066526807,-0.4
7,0.006625079,-0.4
8,0.0062060924,-0.4
9,0.006082021,-0.4
10,0.006033116,-0.4
11,0.005867271,-0.4
12,0.0058254334,-0.4
13,0.0056858994,-0.4
14,0.005506989,-0.4
15,0.005471005,-0.4
16,0.005330142,-0.4
17,0.005300846,-0.4
18,0.0052665216,-0.4
19,0.0051327404,-0.4
20,0.0051109144,-0.4
21,0.005062563,-0.4
22,0.00501073,-0.4
23,0.004984477,-0.4
24,0.0049104346,-0.4
25,0.004854395,-0.4
26,0.004836154,-0.4
27,0.004787016,-0.4
28,0.004738904,-0.4
29,0.00467661,-0.4
30,0.004636284,-0.4
31,0.004615517,-0.4
32,0.004592086,-0.4
33,0.004579907,-0.4
34,0.0045234626,-0.4
35,0.004502369,-0.4
36,0.004465144,-0.4
37,0.0044339476,-0.4
38,0.004419345,-0.4
39,0.0044123903,-0.4
40,0.0043799025,-0.4
41,0.00436105,-0.4
42,0.004314843,-0.4
43,0.0043086824,-0.4
44,0.0042785136,-0.4
45,0.0042397683,-0.4
46,0.0042156726,-0.4
47,0.0042018304,-0.4
48,0.0041803783,-0.4
49,0.0041491142,-0.4
50,0.00412148,-0.4
51,0.0041148504,-0.4
52,0.004092552,-0.4
53,0.0040861527,-0.4
54,0.0040798914,-0.4
55,0.004058815,-0.4
56,0.004034875,-0.4
57,0.0039946376,-0.4
58,0.003987596,-0.4
59,0.0039754715,-0.4
60,0.003951974,-0.4
61,0.0039384156,-0.4
62,0.0039143763,-0.4
63,0.003887198,-0.4
64,0.0038669512,-0.4
65,0.003841924,-0.4
66,0.0038336602,-0.4
67,0.003823173,-0.4
68,0.0038062735,-0.4
69,0.0037990473,-0.4
70,0.0037843708,-0.4
71,0.0037613192,-0.4
72,0.003747667,-0.4
73,0.0037310678,-0.4
74,0.003716517,-0.4
75,0.0037021125,-0.4
76,0.0036874134,-0.4
77,0.0036722962,-0.4
78,0.0036568071,-0.4
79,0.003645594,-0.4
80,0.0036256611,-0.4
81,0.0036232076,-0.4
82,0.003606379,-0.4
83,0.0035958458,-0.4
84,0.003583598,-0.4
85,0.003573814,-0.4
86,0.0035561565,-0.4
87,0.0035429194,-0.4
88,0.0035265214,-0.4
89,0.0035193767,-0.4
90,0.0035019715,-0.4
91,0.0034934846,-0.4
92,0.003472839,-0.4
93,0.0034643696,-0.4
94,0.0034485378,-0.4
95,0.0034408337,-0.4
96,0.0034277656,-0.4
97,0.0034208896,-0.4
98,0.0034075216,-0.4
99,0.00340136,-0.4
100,0.0033848023,-0.4
101,0.00337699,-0.4
102,0.003364844,-0.4
103,0.0033545764,-0.4
104,0.0033425738,-0.4
105,0.0033378184,-0.4
106,0.0033232186,-0.4
107,0.0033166294,-0.4
108,0.0033110508,-0.4
109,0.0032973154,-0.4
110,0.0032959976,-0.4
111,0.003275813,-0.4
112,0.0032564607,-0.4
113,0.0032515845,-0.4
114,0.0032450175,-0.4
115,0.0032263396,-0.4
116,0.003221588,-0.4
117,0.0032106163,-0.4
118,0.0031951685,-0.4
119,0.003191373,-0.4
120,0.0031834543,-0.4
121,0.0031743473,-0.4
122,0.0031659822,-0.4
123,0.0031510347,-0.4
124,0.003141731,-0.4
125,0.0031298175,-0.4
126,0.003122509,-0.4
127,0.0031194722,-0.4
128,0.0031117802,-0.4
129,0.0030988255,-0.4
130,0.0030813313,-0.4
131,0.0030720234,-0.4
132,0.0030605504,-0.4
133,0.0030500535,-0.4
134,0.0030423012,-0.4
135,0.0030283467,-0.4
136,0.0030219895,-0.4
137,0.003017835,-0.4
138,0.0030103298,-0.4
139,0.003004807,-0.4
140,0.0029891958,-0.4
141,0.0029721335,-0.4
142,0.0029686645,-0.4
143,0.0029659655,-0.4
144,0.0029543263,-0.4
145,0.002943848,-0.4
146,0.0029298188,-0.4
147,0.002924498,-0.4
148,0.0029136457,-0.4
149,0.0029014617,-0.4
150,0.0028941105,-0.4
151,0.002890304,-0.4
152,0.00288631,-0.4
153,0.002876543,-0.4
154,0.0028680735,-0.4
155,0.0028630714,-0.4
156,0.0028554702,-0.4
157,0.0028419027,-0.4
158,0.0028337515,-0.4
159,0.0028221896,-0.4
160,0.0028183705,-0.4
161,0.0028099031,-0.4
162,0.0028033755,-0.4
163,0.0027946783,-0.4
164,0.0027829711,-0.4
165,0.002779763,-0.4
166,0.0027751457,-0.4
167,0.0027650176,-0.4
168,0.002749316,-0.4
169,0.0027407056,-0.4
170,0.0027323114,-0.4
171,0.0027269498,-0.4
172,0.0027218994,-0.4
173,0.002715501,-0.4
174,0.002711557,-0.4
175,0.0026930126,-0.4
176,0.0026877834,-0.4
177,0.0026843285,-0.4
178,0.0026825771,-0.4
179,0.0026709451,-0.4
180,0.0026673528,-0.4
181,0.0026614661,-0.4
182,0.002657924,-0.4
183,0.002642631,-0.4
184,0.0026353244,-0.4
185,0.0026297166,-0.4
186,0.0026228582,-0.4
187,0.0026195724,-0.4
188,0.0026094432,-0.4
189,0.0025990459,-0.4
190,0.0025978184,-0.4
191,0.002585664,-0.4
192,0.0025797994,-0.4
193,0.0025711,-0.4
194,0.0025658824,-0.4
195,0.0025605885,-0.4
196,0.0025470748,-0.4
197,0.002541586,-0.4
198,0.0025370412,-0.4
199,0.0025332193,-0.4
200,0.0025205114,-0.4
201,0.0025128215,-0.4
202,0.002512605,-0.4
203,0.0025092645,-0.4
204,0.0024991117,-0.4
205,0.0024948497,-0.4
206,0.0024878057,-0.4
207,0.0024769972,-0.4
208,0.0024677655,-0.4
209,0.0024675105,-0.4
210,0.002464762,-0.4
211,0.0024582825,-0.4
212,0.0024508438,-0.4
213,0.0024435294,-0.4
214,0.0024327694,-0.4
215,0.0024294846,-0.4
216,0.0024205574,-0.4
217,0.002416122,-0.4
218,0.0024126926,-0.4
219,0.0024059683,-0.4
220,0.0023977326,-0.4
221,0.0023880757,-0.4
222,0.0023828028,-0.4
223,0.0023751254,-0.4
224,0.0023709026,-0.4
225,0.002362374,-0.4
226,0.002353803,-0.4
227,0.0023497913,-0.4
228,0.0023477408,-0.4
229,0.0023406846,-0.4
230,0.002328423,-0.4
231,0.0023241509,-0.4
232,0.0023213213,-0.4
233,0.0023158088,-0.4
234,0.0023059966,-0.4
235,0.0023039812,-0.4
236,0.0022979344,-0.4
237,0.0022867562,-0.4
238,0.0022783955,-0.4
239,0.002274397,-0.4
240,0.0022720674,-0.4
241,0.002264998,-0.4
242,0.0022620433,-0.4
243,0.0022543804,-0.4
244,0.00224846,-0.4
245,0.0022443722,-0.4
246,0.0022391516,-0.4
247,0.0022306084,-0.4
248,0.0022252998,-0.4
249,0.0022164066,-0.4
250,0.002213241,-0.4
251,0.0022045118,-0.4
252,0.0021978226,-0.4
253,0.0021938167,-0.4
254,0.002190338,-0.4
255,0.0021793284,-0.4
256,0.0021748426,-0.4
257,0.002171514,-0.4
258,0.0021688573,-0.4
259,0.0021656842,-0.4
260,0.0021562793,-0.4
261,0.0021523738,-0.4
262,0.0021498906,-0.4
263,0.002144392,-0.4
264,0.0021432333,-0.4
265,0.0021334328,-0.4
266,0.0021278218,-0.4
267,0.0021204497,-0.4
268,0.0021172743,-0.4
269,0.0021116983,-0.4
270,0.0021046356,-0.4
271,0.0021019692,-0.4
272,0.0020949475,-0.4
273,0.002086391,-0.4
274,0.0020804782,-0.4
275,0.0020783986,-0.4
276,0.0020767327,-0.4
277,0.0020723997,-0.4
278,0.0020638101,-0.4
279,0.002059372,-0.4
280,0.0020552394,-0.4
281,0.0020518878,-0.4
282,0.0020384898,-0.4
283,0.002032888,-0.4
284,0.0020289638,-0.4
285,0.0020193118,-0.4
286,0.0020179637,-0.4
287,0.0020118456,-0.4
288,0.0020053536,-0.4
289,0.0020031752,-0.4
290,0.0019988026,-0.4
291,0.0019975044,-0.4
292,0.0019913502,-0.4
293,0.001980725,-0.4
294,0.0019762877,-0.4
295,0.0019728837,-0.4
296,0.0019604606,-0.4
297,0.0019583835,-0.4
298,0.0019557641,-0.4
299,0.0019507045,-0.4
300,0.0019441055,-0.4
301,0.0019429164,-0.4
302,0.0019327693,-0.4
303,0.0019274845,-0.4
304,0.0019234226,-0.4
305,0.0019203381,-0.4
306,0.001917497,-0.4
307,0.0019137083,-0.4
308,0.001905242,-0.4
309,0.0019010946,-0.4
310,0.0018973368,-0.4
311,0.0018933245,-0.4
312,0.0018891344,-0.4
313,0.0018825784,-0.4
314,0.0018796352,-0.4
315,0.0018735818,-0.4
316,0.0018709938,-0.4
317,0.0018676356,-0.4
318,0.0018628632,-0.4
319,0.0018612139,-0.4
320,0.0018546279,-0.4
321,0.0018529127,-0.4
322,0.0018489226,-0.4
323,0.0018483554,-0.4
324,0.0018392117,-0.4
325,0.001834468,-0.4
326,0.0018331213,-0.4
327,0.0018274245,-0.4
328,0.0018204286,-0.4
329,0.0018157605,-0.4
330,0.0018104826,-0.4
331,0.0018044342,-0.4
332,0.0018031112,-0.4
333,0.0017994061,-0.4
334,0.0017906697,-0.4
335,0.0017902475,-0.4
336,0.0017776017,-0.4
337,0.0017752823,-0.4
338,0.0017721648,-0.4
339,0.0017704834,-0.4
340,0.0017593269,-0.4
341,0.001756318,-0.4
342,0.0017526052,-0.4
343,0.0017499847,-0.4
344,0.001746121,-0.4
345,0.0017417843,-0.4
346,0.0017343978,-0.4
347,0.0017338628,-0.4
348,0.0017261471,-0.4
349,0.0017199962,-0.4
350,0.0017168017,-0.4
351,0.0017100514,-0.4
352,0.0017065913,-0.4
353,0.0017033047,-0.4
354,0.0016974573,-0.4
355,0.0016928897,-0.4
356,0.0016881804,-0.4
357,0.0016822204,-0.4
358,0.001678542,-0.4
359,0.0016720444,-0.4
360,0.0016704215,-0.4
361,0.0016664444,-0.4
362,0.0016644534,-0.4
363,0.0016579424,-0.4
364,0.0016571635,-0.4
365,0.0016537023,-0.4
366,0.0016461314,-0.4
367,0.0016420142,-0.4
368,0.0016395405,-0.4
369,0.0016373973,-0.4
370,0.0016344129,-0.4
371,0.0016301147,-0.4
372,0.0016265902,-0.4
373,0.0016232809,-0.4
374,0.0016168404,-0.4
375,0.00160996,-0.4
376,0.0016089157,-0.4
377,0.0016060214,-0.4
378,0.0016019545,-0.4
379,0.0016011036,-0.4
380,0.0015892463,-0.4
381,0.0015890416,-0.4
382,0.00158402,-0.4
383,0.0015813686,-0.4
384,0.0015779719,-0.4
385,0.0015717559,-0.4
386,0.0015642279,-0.4
387,0.0015631967,-0.4
388,0.0015577824,-0.4
389,0.0015521486,-0.4
390,0.0015485714,-0.4
391,0.0015460469,-0.4
392,0.0015448706,-0.4
393,0.0015412958,-0.4
394,0.001538608,-0.4
395,0.0015325871,-0.4
396,0.0015293416,-0.4
397,0.0015241394,-0.4
398,0.0015196359,-0.4
399,0.0015178862,-0.4
400,0.0015138759,-0.4
401,0.0015089854,-0.4
402,0.0015048762,-0.4
403,0.0015026818,-0.4
404,0.0014947692,-0.4
405,0.0014923892,-0.4
406,0.0014903862,-0.4
407,0.0014850291,-0.4
408,0.0014799533,-0.4
409,0.001478266,-0.4
410,0.001474108,-0.4
411,0.0014730365,-0.4
412,0.0014682418,-0.4
413,0.0014616624,-0.4
414,0.0014606579,-0.4
415,0.0014548565,-0.4
416,0.0014534976,-0.4
417,0.0014472203,-0.4
418,0.0014440194,-0.4
419,0.0014430211,-0.4
420,0.0014369113,-0.4
421,0.0014357192,-0.4
422,0.0014330306,-0.4
423,0.0014298635,-0.4
424,0.0014281404,-0.4
425,0.0014250383,-0.4
426,0.0014157282,-0.4
427,0.0014116996,-0.4
428,0.0014088498,-0.4
429,0.0014015576,-0.4
430,0.0013987102,-0.4
431,0.0013958891,-0.4
432,0.0013935592,-0.4
433,0.0013912307,-0.4
434,0.001387884,-0.4
435,0.0013821757,-0.4
436,0.0013785172,-0.4
437,0.0013742034,-0.4
438,0.0013727681,-0.4
439,0.001367854,-0.4
440,0.0013642028,-0.4
441,0.0013595362,-0.4
442,0.001356149,-0.4
443,0.0013531183,-0.4
444,0.0013506056,-0.4
445,0.0013470122,-0.4
446,0.0013453368,-0.4
447,0.001335741,-0.4
448,0.0013346123,-0.4
449,0.0013313628,-0.4
450,0.0013300602,-0.4
451,0.0013263253,-0.4
452,0.0013218125,-0.4
453,0.0013146566,-0.4
454,0.001312756,-0.4
455,0.0013105527,-0.4
456,0.0013090065,-0.4
457,0.0013039607,-0.4
458,0.0013023419,-0.4
459,0.0012989,-0.4
460,0.0012972609,-0.4
461,0.0012958703,-0.4
462,0.0012905803,-0.4
463,0.0012890173,-0.4
464,0.0012842908,-0.4
465,0.0012785132,-0.4
466,0.0012758377,-0.4
467,0.0012731126,-0.4
468,0.0012709171,-0.4
469,0.0012700376,-0.4
470,0.001266325,-0.4
471,0.0012616162,-0.4
472,0.0012564908,-0.4
473,0.0012506739,-0.4
474,0.0012479944,-0.4
475,0.0012449275,-0.4
476,0.0012419092,-0.4
477,0.0012397913,-0.4
478,0.0012369539,-0.4
479,0.0012309375,-0.4
480,0.0012302255,-0.4
481,0.0012259289,-0.4
482,0.001221847,-0.4
483,0.0012194662,-0.4
484,0.0012163775,-0.4
485,0.0012143914,-0.4
486,0.0012107865,-0.4
487,0.0012085736,-0.4
488,0.0012042071,-0.4
489,0.001201066,-0.4
490,0.0011999157,-0.4
491,0.0011901218,-0.4
492,0.0011897295,-0.4
493,0.0011876568,-0.4
494,0.0011842203,-0.4
495,0.0011827261,-0.4
496,0.0011772219,-0.4
497,0.0011748167,-0.4
498,0.0011707079,-0.4
499,0.0011695107,-0.4
500,0.001167079,-0.4
501,0.0011621944,-0.4
502,0.0011597645,-0.4
503,0.0011557844,-0.4
504,0.0011528896,-0.4
505,0.0011507806,-0.4
506,0.0011478816,-0.4
507,0.0011439036,-0.4
508,0.0011409839,-0.4
509,0.0011369741,-0.4
510,0.001133098,-0.4
511,0.0011306687,-0.4
512,0.0011287498,-0.4
513,0.0011250429,-0.4
514,0.0011223259,-0.4
515,0.0011207291,-0.4
516,0.0011177473,-0.4
517,0.0011146708,-0.4
518,0.0011098558,-0.4
519,0.0011070621,-0.4
520,0.0011040184,-0.4
521,0.0011025311,-0.4
522,0.0010992993,-0.4
523,0.001094963,-0.4
524,0.0010911443,-0.4
525,0.0010894248,-0.4
526,0.001086522,-0.4
527,0.0010796878,-0.4
528,0.0010784854,-0.4
529,0.001074404,-0.4
530,0.0010728278,-0.4
531,0.0010698843,-0.4
532,0.0010660855,-0.4
533,0.0010640253,-0.4
534,0.001061509,-0.4
535,0.0010578273,-0.4
536,0.0010561114,-0.4
537,0.0010535762,-0.4
538,0.0010502585,-0.4
539,0.0010495959,-0.4
540,0.0010457264,-0.4
541,0.001043439,-0.4
542,0.0010388022,-0.4
543,0.0010363369,-0.4
544,0.0010342156,-0.4
545,0.0010302163,-0.4
546,0.0010298255,-0.4
547,0.0010244409,-0.4
548,0.0010215909,-0.4
549,0.0010177778,-0.4
550,0.0010173048,-0.4
551,0.0010114822,-0.4
552,0.0010090125,-0.4
553,0.0010067865,-0.4
554,0.0010057885,-0.4
555,0.0010029611,-0.4
556,0.0010003053,-0.4
557,0.0009977833,-0.4
558,0.00099465,-0.4
559,0.0009922377,-0.4
560,0.0009913245,-0.4
561,0.0009865452,-0.4
562,0.0009846941,-0.4
563,0.0009817616,-0.4
564,0.0009795594,-0.4
565,0.0009767709,-0.4
566,0.00097360444,-0.4
567,0.00097312906,-0.4
568,0.00096843566,-0.4
569,0.0009640649,-0.4
570,0.0009619194,-0.4
571,0.00095488934,-0.4
572,0.00095296884,-0.4
573,0.0009516118,-0.4
574,0.0009484119,-0.4
575,0.0009465813,-0.4
576,0.00094378943,-0.4
577,0.0009410649,-0.4
578,0.0009393967,-0.4
579,0.000935664,-0.4
580,0.00093320565,-0.4
581,0.0009296166,-0.4
582,0.0009269539,-0.4
583,0.00092345383,-0.4
584,0.0009208237,-0.4
585,0.0009195316,-0.4
586,0.00091745285,-0.4
587,0.00091471296,-0.4
588,0.0009120912,-0.4
589,0.0009112907,-0.4
590,0.0009087395,-0.4
591,0.000904668,-0.4
592,0.0009035059,-0.4
593,0.0009009769,-0.4
594,0.0008964498,-0.4
595,0.0008936378,-0.4
596,0.000891843,-0.4
597,0.0008882448,-0.4
598,0.0008855925,-0.4
599,0.0008832602,-0.4
600,0.0008823438,-0.4
601,0.00088109175,-0.4
602,0.0008734495,-0.4
603,0.0008720329,-0.4
604,0.0008667638,-0.4
605,0.00086630153,-0.4
606,0.0008647707,-0.4
607,0.0008617954,-0.4
608,0.0008594023,-0.4
609,0.00085602346,-0.4
610,0.00085522863,-0.4
611,0.0008509801,-0.4
612,0.0008496411,-0.4
613,0.00084681733,-0.4
614,0.0008460797,-0.4
615,0.00084046857,-0.4
616,0.00083729037,-0.4
617,0.0008364708,-0.4
618,0.0008321397,-0.4
619,0.00082921016,-0.4
620,0.0008258363,-0.4
621,0.00082369265,-0.4
622,0.0008221382,-0.4
623,0.0008208303,-0.4
624,0.00081815774,-0.4
625,0.00081579294,-0.4
626,0.00081298023,-0.4
627,0.00080890104,-0.4
628,0.0008057149,-0.4
629,0.0008039009,-0.4
630,0.00080273976,-0.4
631,0.00080003013,-0.4
632,0.0007975225,-0.4
633,0.0007936202,-0.4
634,0.0007914361,-0.4
635,0.0007896884,-0.4
636,0.0007872085,-0.4
637,0.00078602345,-0.4
638,0.0007843613,-0.4
639,0.0007814185,-0.4
640,0.00077633525,-0.4
641,0.00077479077,-0.4
642,0.0007727805,-0.4
643,0.0007714271,-0.4
644,0.00077104324,-0.4
645,0.00076623086,-0.4
646,0.0007628612,-0.4
647,0.00075956667,-0.4
648,0.0007587863,-0.4
649,0.0007576662,-0.4
650,0.00075151667,-0.4
651,0.00075028,-0.4
652,0.00074814627,-0.4
653,0.0007462831,-0.4
654,0.0007452241,-0.4
655,0.00074370776,-0.4
656,0.00074039784,-0.4
657,0.00073810905,-0.4
658,0.0007366682,-0.4
659,0.0007317315,-0.4
660,0.0007294246,-0.4
661,0.00072803797,-0.4
662,0.00072761334,-0.4
663,0.00072468666,-0.4
664,0.0007200035,-0.4
665,0.00071859977,-0.4
666,0.00071610225,-0.4
667,0.00071436557,-0.4
668,0.0007130274,-0.4
669,0.0007114507,-0.4
670,0.0007100809,-0.4
671,0.00070728443,-0.4
672,0.0007022982,-0.4
673,0.00070054096,-0.4
674,0.0006992083,-0.4
675,0.0006982584,-0.4
676,0.00069481763,-0.4
677,0.00069304236,-0.4
678,0.000691289,-0.4
679,0.00069015566,-0.4
680,0.0006879191,-0.4
681,0.00068553316,-0.4
682,0.0006822864,-0.4
683,0.0006808998,-0.4
684,0.00067702634,-0.4
685,0.00067458913,-0.4
686,0.0006728723,-0.4
687,0.0006706585,-0.4
688,0.00066936406,-0.4
689,0.0006675662,-0.4
690,0.00066503265,-0.4
691,0.0006614582,-0.4
692,0.00066087855,-0.4
693,0.0006588579,-0.4
694,0.00065595575,-0.4
695,0.0006521185,-0.4
696,0.000650243,-0.4
697,0.00064775813,-0.4
698,0.0006460757,-0.4
699,0.0006442834,-0.4
700,0.0006416655,-0.4
701,0.0006401123,-0.4
702,0.00063747703,-0.4
703,0.0006359935,-0.4
704,0.0006327882,-0.4
705,0.0006306484,-0.4
706,0.00062615564,-0.4
707,0.00062568794,-0.4
708,0.0006224691,-0.4
709,0.00062053645,-0.4
710,0.00061889435,-0.4
711,0.00061736355,-0.4
712,0.0006153147,-0.4
713,0.0006116223,-0.4
714,0.00060965365,-0.4
715,0.0006092967,-0.4
716,0.00060569355,-0.4
717,0.0006048003,-0.4
718,0.0006045017,-0.4
719,0.0006018567,-0.4
720,0.00059837225,-0.4
721,0.0005954016,-0.4
722,0.0005937613,-0.4
723,0.0005904832,-0.4
724,0.00058864977,-0.4
725,0.0005872316,-0.4
726,0.00058591296,-0.4
727,0.0005832367,-0.4
728,0.0005810376,-0.4
729,0.0005790458,-0.4
730,0.0005772004,-0.4
731,0.0005759858,-0.4
732,0.00057370984,-0.4
733,0.00057212054,-0.4
734,0.000567711,-0.4
735,0.0005655607,-0.4
736,0.00056324276,-0.4
737,0.0005615984,-0.4
738,0.0005581403,-0.4
739,0.0005572586,-0.4
740,0.0005548402,-0.4
741,0.00055338227,-0.4
742,0.00055150996,-0.4
743,0.0005483976,-0.4
744,0.00054603105,-0.4
745,0.0005447723,-0.4
746,0.0005419947,-0.4
747,0.000541451,-0.4
748,0.00053805154,-0.4
749,0.00053536706,-0.4
750,0.0005348511,-0.4
751,0.00053410354,-0.4
752,0.00053104403,-0.4
753,0.00052849366,-0.4
754,0.00052572985,-0.4
755,0.0005245256,-0.4
756,0.0005234524,-0.4
757,0.00052179064,-0.4
758,0.0005199479,-0.4
759,0.00051794405,-0.4
760,0.00051705027,-0.4
761,0.00051608984,-0.4
762,0.0005151795,-0.4
763,0.0005117003,-0.4
764,0.00050869904,-0.4
765,0.00050748314,-0.4
766,0.00050554815,-0.4
767,0.00050280517,-0.4
768,0.0005016579,-0.4
769,0.000498655,-0.4
770,0.00049702066,-0.4
771,0.00049599743,-0.4
772,0.00049363956,-0.4
773,0.0004908965,-0.4
774,0.00049005146,-0.4
775,0.00048847776,-0.4
776,0.00048703834,-0.4
777,0.00048573632,-0.4
778,0.00048354865,-0.4
779,0.00048088704,-0.4
780,0.00047896692,-0.4
781,0.00047584093,-0.4
782,0.00047480853,-0.4
783,0.0004737763,-0.4
784,0.0004722733,-0.4
785,0.00047116177,-0.4
786,0.0004675943,-0.4
787,0.00046549924,-0.4
788,0.00046356034,-0.4
789,0.00046220885,-0.4
790,0.00046025988,-0.4
791,0.00045813754,-0.4
792,0.00045637166,-0.4
793,0.0004557134,-0.4
794,0.00045294993,-0.4
795,0.00045080052,-0.4
796,0.00044829512,-0.4
797,0.0004464918,-0.4
798,0.00044508802,-0.4
799,0.00044370966,-0.4
800,0.00044241443,-0.4
801,0.000440803,-0.4
802,0.0004392864,-0.4
803,0.00043686514,-0.4
804,0.0004350399,-0.4
805,0.0004345546,-0.4
806,0.00043382848,-0.4
807,0.00043004952,-0.4
808,0.00042954093,-0.4
809,0.00042783335,-0.4
810,0.00042456394,-0.4
811,0.00042204547,-0.4
812,0.0004207152,-0.4
813,0.0004191025,-0.4
814,0.00041797623,-0.4
815,0.00041314686,-0.4
816,0.00041228178,-0.4
817,0.00041151402,-0.4
818,0.00040977175,-0.4
819,0.00040821344,-0.4
820,0.00040777822,-0.4
821,0.00040604654,-0.4
822,0.0004051787,-0.4
823,0.00040190842,-0.4
824,0.00040016882,-0.4
825,0.00039742104,-0.4
826,0.00039669542,-0.4
827,0.00039363897,-0.4
828,0.00039272616,-0.4
829,0.00038991912,-0.4
830,0.00038840174,-0.4
831,0.00038740004,-0.4
832,0.00038582963,-0.4
833,0.00038394044,-0.4
834,0.00038161708,-0.4
835,0.00037911037,-0.4
836,0.00037775413,-0.4
837,0.00037660924,-0.4
838,0.0003739874,-0.4
839,0.0003728666,-0.4
840,0.00037206293,-0.4
841,0.0003707203,-0.4
842,0.00036726592,-0.4
843,0.0003664746,-0.4
844,0.00036468575,-0.4
845,0.0003635407,-0.4
846,0.00036121355,-0.4
847,0.00035987815,-0.4
848,0.00035857776,-0.4
849,0.00035799984,-0.4
850,0.0003558601,-0.4
851,0.0003528222,-0.4
852,0.0003515068,-0.4
853,0.00035003855,-0.4
854,0.00034985313,-0.4
855,0.000347249,-0.4
856,0.00034333914,-0.4
857,0.00034313908,-0.4
858,0.00034064768,-0.4
859,0.00033813267,-0.4
860,0.00033724165,-0.4
861,0.00033647902,-0.4
862,0.0003356535,-0.4
863,0.00033213227,-0.4
864,0.00033039224,-0.4
865,0.00032851452,-0.4
866,0.00032733424,-0.4
867,0.00032581962,-0.4
868,0.00032391402,-0.4
869,0.0003224792,-0.4
870,0.00032037988,-0.4
871,0.00032036335,-0.4
872,0.00031813537,-0.4
873,0.00031694942,-0.4
874,0.00031610654,-0.4
875,0.0003134825,-0.4
876,0.0003127932,-0.4
877,0.00031176888,-0.4
878,0.00030944796,-0.4
879,0.0003083685,-0.4
880,0.0003054392,-0.4
881,0.00030376815,-0.4
882,0.00030315778,-0.4
883,0.00030017688,-0.4
884,0.00029880658,-0.4
885,0.00029647452,-0.4
886,0.00029520283,-0.4
887,0.0002946868,-0.4
888,0.0002929747,-0.4
889,0.00029159422,-0.4
890,0.00029075518,-0.4
891,0.00028991068,-0.4
892,0.0002871514,-0.4
893,0.0002855954,-0.4
894,0.00028344907,-0.4
895,0.00028210558,-0.4
896,0.000280395,-0.4
897,0.00027835352,-0.4
898,0.00027729015,-0.4
899,0.0002758489,-0.4
900,0.0002730311,-0.4
901,0.0002695344,-0.4
902,0.00026905246,-0.4
903,0.00026833132,-0.4
904,0.00026524044,-0.4
905,0.0002646881,-0.4
906,0.00026330337,-0.4
907,0.00026272045,-0.4
908,0.0002604026,-0.4
909,0.0002596425,-0.4
910,0.0002588946,-0.4
911,0.0002561958,-0.4
912,0.0002539381,-0.4
913,0.00025281045,-0.4
914,0.00024951453,-0.4
915,0.00024823158,-0.4
916,0.00024677473,-0.4
917,0.00024648316,-0.4
918,0.0002441955,-0.4
919,0.00024250131,-0.4
920,0.00024051525,-0.4
921,0.00023988265,-0.4
922,0.00023826752,-0.4
923,0.00023642664,-0.4
924,0.00023493706,-0.4
925,0.0002335913,-0.4
926,0.00023336167,-0.4
927,0.00022997466,-0.4
928,0.00022922091,-0.4
929,0.00022813544,-0.4
930,0.00022738014,-0.4
931,0.00022596907,-0.4
932,0.00022476824,-0.4
933,0.0002235133,-0.4
934,0.00022147779,-0.4
935,0.00021837107,-0.4
936,0.00021629623,-0.4
937,0.00021587742,-0.4
938,0.0002145451,-0.4
939,0.000212648,-0.4
940,0.00021243915,-0.4
941,0.0002100822,-0.4
942,0.0002073792,-0.4
943,0.0002056878,-0.4
944,0.00020421552,-0.4
945,0.00020283365,-0.4
946,0.00020145389,-0.4
947,0.0001987647,-0.4
948,0.00019812866,-0.4
949,0.00019731643,-0.4
950,0.00019608083,-0.4
951,0.00019380591,-0.4
952,0.00019370484,-0.4
953,0.00019206878,-0.4
954,0.00019152211,-0.4
955,0.00018971245,-0.4
956,0.00018714691,-0.4
957,0.00018649436,-0.4
958,0.00018442013,-0.4
959,0.00018305244,-0.4
960,0.00018271137,-0.4
961,0.0001811145,-0.4
962,0.00017701351,-0.4
963,0.00017672165,-0.4
964,0.00017428558,-0.4
965,0.00017255986,-0.4
966,0.00017221594,-0.4
967,0.0001710783,-0.4
968,0.0001682424,-0.4
969,0.0001672887,-0.4
970,0.00016526964,-0.4
971,0.00016444371,-0.4
972,0.00016381331,-0.4
973,0.00016253046,-0.4
974,0.00016114167,-0.4
975,0.00015893394,-0.4
976,0.00015720745,-0.4
977,0.00015567034,-0.4
978,0.00015517573,-0.4
979,0.00015205976,-0.4
980,0.00014999614,-0.4
981,0.00014782182,-0.4
982,0.00014744293,-0.4
983,0.00014560304,-0.4
984,0.00014253917,-0.4
985,0.00014211617,-0.4
986,0.00013993046,-0.4
987,0.00013932209,-0.4
988,0.00013649568,-0.4
989,0.00013549648,-0.4
990,0.00013445434,-0.4
991,0.00013109138,-0.4
992,0.00012956395,-0.4
993,0.00012626205,-0.4
994,0.00012458733,-0.4
995,0.00012339682,-0.4
996,0.00012169608,-0.4
997,0.000116571675,-0.4
998,0.00011034328,-0.4
999,0.00011010455,-0.4
1000,3.2163162e-16,-0.4
1,0.010911927,-0.5
2,0.008361204,-0.5
3,0.0064634047,-0.5
4,0.0055466206,-0.5
5,0.005317072,-0.5
6,0.0049542813,-0.5
7,0.004842463,-0.5
8,0.0043908367,-0.5
9,0.0042905463,-0.5
10,0.0042295507,-0.5
11,0.0040212325,-0.5
12,0.0039612805,-0.5
13,0.0038447767,-0.5
14,0.0036889769,-0.5
15,0.0036484778,-0.5
16,0.0035148151,-0.5
17,0.0034697782,-0.5
18,0.003379587,-0.5
19,0.0033511533,-0.5
20,0.003300937,-0.5
21,0.0032120824,-0.5
22,0.0031845053,-0.5
23,0.003140003,-0.5
24,0.0031102663,-0.5
25,0.0030360366,-0.5
26,0.0029903338,-0.5
27,0.0029574563,-0.5
28,0.002908136,-0.5
29,0.0028762624,-0.5
30,0.0028494603,-0.5
31,0.0028207821,-0.5
32,0.0028038677,-0.5
33,0.0027810659,-0.5
34,0.0027627575,-0.5
35,0.0027196961,-0.5
36,0.0027097918,-0.5
37,0.0026678636,-0.5
38,0.0026596927,-0.5
39,0.0026330003,-0.5
40,0.0026285711,-0.5
41,0.0026026857,-0.5
42,0.0025715076,-0.5
43,0.0025696044,-0.5
44,0.0025330381,-0.5
45,0.0024981834,-0.5
46,0.0024801276,-0.5
47,0.0024647384,-0.5
48,0.0024584716,-0.5
49,0.0024224082,-0.5
50,0.0024174023,-0.5
51,0.0023970248,-0.5
52,0.0023878645,-0.5
53,0.0023719538,-0.5
54,0.0023676404,-0.5
55,0.0023432907,-0.5
56,0.0023353046,-0.5
57,0.0023112402,-0.5
58,0.0023084576,-0.5
59,0.0022916591,-0.5
60,0.0022795976,-0.5
61,0.0022657216,-0.5
62,0.002258449,-0.5
63,0.0022348685,-0.5
64,0.002222013,-0.5
65,0.0022020491,-0.5
66,0.0021968207,-0.5
67,0.0021840027,-0.5
68,0.0021717919,-0.5
69,0.0021686598,-0.5
70,0.0021602854,-0.5
71,0.0021476438,-0.5
72,0.0021356477,-0.5
73,0.0021157304,-0.5
74,0.0021103271,-0.5
75,0.0020898255,-0.5
76,0.0020862066,-0.5
77,0.002076418,-0.5
78,0.0020689594,-0.5
79,0.0020633687,-0.5
80,0.002055612,-0.5
81,0.002047185,-0.5
82,0.0020367359,-0.5
83,0.0020324718,-0.5
84,0.0020208212,-0.5
85,0.0020134407,-0.5
86,0.002002847,-0.5
87,0.0019925465,-0.5
88,0.0019876182,-0.5
89,0.0019751259,-0.5
90,0.001970119,-0.5
91,0.0019576408,-0.5
92,0.0019534256,-0.5
93,0.001946559,-0.5
94,0.0019235307,-0.5
95,0.0019218333,-0.5
96,0.0019174184,-0.5
97,0.0019088889,-0.5
98,0.0018984426,-0.5
99,0.001891151,-0.5
100,0.00188004,-0.5
101,0.0018717165,-0.5
102,0.0018631741,-0.5
103,0.0018562885,-0.5
104,0.0018494757,-0.5
105,0.0018439362,-0.5
106,0.0018390615,-0.5
107,0.0018359041,-0.5
108,0.0018334094,-0.5
109,0.0018243918,-0.5
110,0.0018224497,-0.5
111,0.0018172476,-0.5
112,0.0018085252,-0.5
113,0.0018005896,-0.5
114,0.0017943984,-0.5
115,0.0017808302,-0.5
116,0.0017731782,-0.5
117,0.0017728143,-0.5
118,0.0017683756,-0.5
119,0.0017638085,-0.5
120,0.0017521118,-0.5
121,0.0017471655,-0.5
122,0.00173954,-0.5
123,0.001730732,-0.5
124,0.0017305616,-0.5
125,0.0017156871,-0.5
126,0.001709333,-0.5
127,0.0017069064,-0.5
128,0.0017039533,-0.5
129,0.001702755,-0.5
130,0.001690796,-0.5
131,0.0016819822,-0.5
132,0.0016781214,-0.5
133,0.0016660154,-0.5
134,0.0016627767,-0.5
135,0.0016588441,-0.5
136,0.0016575585,-0.5
137,0.0016492625,-0.5
138,0.0016439473,-0.5
139,0.0016408978,-0.5
140,0.0016316018,-0.5
141,0.0016302495,-0.5
142,0.0016283186,-0.5
143,0.0016222064,-0.5
144,0.0016188343,-0.5
145,0.0016072687,-0.5
146,0.0016007266,-0.5
147,0.0015988952,-0.5
148,0.001598285,-0.5
149,0.0015921594,-0.5
150,0.0015805537,-0.5
151,0.0015710524,-0.5
152,0.001569185,-0.5
153,0.0015658704,-0.5
154,0.001559128,-0.5
155,0.0015564238,-0.5
156,0.0015502971,-0.5
157,0.0015462821,-0.5
158,0.0015382183,-0.5
159,0.0015345801,-0.5
160,0.0015332779,-0.5
161,0.00152324,-0.5
162,0.0015222331,-0.5
163,0.0015107169,-0.5
164,0.0015050443,-0.5
165,0.0015045264,-0.5
166,0.0014969029,-0.5
167,0.0014913977,-0.5
168,0.0014893594,-0.5
169,0.001483057,-0.5
170,0.0014800475,-0.5
171,0.0014767719,-0.5
172,0.0014715262,-0.5
173,0.0014696602,-0.5
174,0.0014624051,-0.5
175,0.0014592826,-0.5
176,0.0014573828,-0.5
177,0.00145167,-0.5
178,0.0014509392,-0.5
179,0.0014440613,-0.5
180,0.0014401167,-0.5
181,0.0014333975,-0.5
182,0.0014279888,-0.5
183,0.0014246647,-0.5
184,0.0014227721,-0.5
185,0.0014183641,-0.5
186,0.0014132716,-0.5
187,0.0014081817,-0.5
188,0.001404229,-0.5
189,0.0014026086,-0.5
190,0.0013956451,-0.5
191,0.0013901741,-0.5
192,0.0013858222,-0.5
193,0.0013846571,-0.5
194,0.0013809118,-0.5
195,0.0013779569,-0.5
196,0.0013747779,-0.5
197,0.0013691417,-0.5
198,0.0013675538,-0.5
199,0.001363149,-0.5
200,0.0013552456,-0.5
201,0.0013526484,-0.5
202,0.0013465261,-0.5
203,0.0013443563,-0.5
204,0.0013390947,-0.5
205,0.0013361463,-0.5
206,0.0013305534,-0.5
207,0.0013274007,-0.5
208,0.0013243769,-0.5
209,0.0013183494,-0.5
210,0.0013164523,-0.5
211,0.0013123786,-0.5
212,0.0013084334,-0.5
213,0.0013039019,-0.5
214,0.0013014516,-0.5
215,0.0012984386,-0.5
216,0.0012947279,-0.5
217,0.0012916166,-0.5
218,0.0012871367,-0.5
219,0.0012834254,-0.5
220,0.0012780172,-0.5
221,0.0012751692,-0.5
222,0.0012739692,-0.5
223,0.0012688751,-0.5
224,0.001262243,-0.5
225,0.0012583839,-0.5
226,0.0012550674,-0.5
227,0.0012538056,-0.5
228,0.0012526861,-0.5
229,0.0012505702,-0.5
230,0.0012432066,-0.5
231,0.0012417368,-0.5
232,0.0012359457,-0.5
233,0.0012345035,-0.5
234,0.0012309521,-0.5
235,0.001225222,-0.5
236,0.0012232779,-0.5
237,0.0012191385,-0.5
238,0.0012115249,-0.5
239,0.0012079658,-0.5
240,0.0012073136,-0.5
241,0.0012069168,-0.5
242,0.0012042052,-0.5
243,0.001199384,-0.5
244,0.0011974028,-0.5
245,0.0011934726,-0.5
246,0.0011890163,-0.5
247,0.0011850947,-0.5
248,0.0011814431,-0.5
249,0.0011788618,-0.5
250,0.0011757965,-0.5
251,0.0011708988,-0.5
252,0.0011707386,-0.5
253,0.0011676648,-0.5
254,0.0011645462,-0.5
255,0.0011622173,-0.5
256,0.0011606511,-0.5
257,0.0011547691,-0.5
258,0.0011545668,-0.5
259,0.0011538285,-0.5
260,0.0011498011,-0.5
261,0.0011422811,-0.5
262,0.0011419248,-0.5
263,0.0011392264,-0.5
264,0.0011361836,-0.5
265,0.0011316026,-0.5
266,0.0011269685,-0.5
267,0.0011260208,-0.5
268,0.0011217524,-0.5
269,0.0011179633,-0.5
270,0.0011158781,-0.5
271,0.0011113496,-0.5
272,0.0011079801,-0.5
273,0.0011033977,-0.5
274,0.0011019277,-0.5
275,0.0010999249,-0.5
276,0.0010988897,-0.5
277,0.0010926686,-0.5
278,0.0010888369,-0.5
279,0.0010872621,-0.5
280,0.0010847219,-0.5
281,0.001082468,-0.5
282,0.0010793774,-0.5
283,0.0010760786,-0.5
284,0.0010724727,-0.5
285,0.0010704262,-0.5
286,0.0010648038,-0.5
287,0.001062564,-0.5
288,0.0010610664,-0.5
289,0.0010575764,-0.5
290,0.0010563333,-0.5
291,0.0010525504,-0.5
292,0.0010506506,-0.5
293,0.0010469643,-0.5
294,0.0010416561,-0.5
295,0.0010405165,-0.5
296,0.0010383766,-0.5
297,0.0010354735,-0.5
298,0.0010327685,-0.5
299,0.0010300749,-0.5
300,0.001026338,-0.5
301,0.0010229553,-0.5
302,0.0010208598,-0.5
303,0.0010175455,-0.5
304,0.001016746,-0.5
305,0.0010114594,-0.5
306,0.0010091999,-0.5
307,0.0010073902,-0.5
308,0.0010028171,-0.5
309,0.001002195,-0.5
310,0.0010011101,-0.5
311,0.0009978567,-0.5
312,0.0009953214,-0.5
313,0.0009924577,-0.5
314,0.0009912277,-0.5
315,0.0009874684,-0.5
316,0.0009856423,-0.5
317,0.0009819965,-0.5
318,0.0009815176,-0.5
319,0.0009769677,-0.5
320,0.00097336835,-0.5
321,0.00097264274,-0.5
322,0.0009687957,-0.5
323,0.0009673022,-0.5
324,0.0009635062,-0.5
325,0.0009622713,-0.5
326,0.0009611923,-0.5
327,0.0009594097,-0.5
328,0.00095448317,-0.5
329,0.00095379015,-0.5
330,0.0009522702,-0.5
331,0.000949301,-0.5
332,0.00094806904,-0.5
333,0.00094291265,-0.5
334,0.0009409775,-0.5
335,0.0009358476,-0.5
336,0.0009345103,-0.5
337,0.0009334447,-0.5
338,0.0009321108,-0.5
339,0.00092994474,-0.5
340,0.0009276739,-0.5
341,0.0009249997,-0.5
342,0.0009214848,-0.5
343,0.000919351,-0.5
344,0.0009174028,-0.5
345,0.00091357133,-0.5
346,0.00091190205,-0.5
347,0.00090958015,-0.5
348,0.0009066579,-0.5
349,0.0009007435,-0.5
350,0.0008993419,-0.5
351,0.0008969427,-0.5
352,0.0008955107,-0.5
353,0.00089318474,-0.5
354,0.00089030765,-0.5
355,0.00088808,-0.5
356,0.0008848563,-0.5
357,0.00088376476,-0.5
358,0.0008813529,-0.5
359,0.000878633,-0.5
360,0.00087712967,-0.5
361,0.00087278005,-0.5
362,0.0008722371,-0.5
363,0.0008674189,-0.5
364,0.00086598535,-0.5
365,0.00086396595,-0.5
366,0.00086244295,-0.5
367,0.0008592874,-0.5
368,0.0008578884,-0.5
369,0.000854175,-0.5
370,0.00085276365,-0.5
371,0.0008519759,-0.5
372,0.0008505942,-0.5
373,0.00084705034,-0.5
374,0.0008449936,-0.5
375,0.0008430592,-0.5
376,0.0008393147,-0.5
377,0.0008376095,-0.5
378,0.0008363079,-0.5
379,0.00083611504,-0.5
380,0.000834705,-0.5
381,0.0008331235,-0.5
382,0.000826829,-0.5
383,0.0008250778,-0.5
384,0.00082307716,-0.5
385,0.00082094775,-0.5
386,0.0008169798,-0.5
387,0.0008148178,-0.5
388,0.0008141465,-0.5
389,0.0008124543,-0.5
390,0.00080864166,-0.5
391,0.0008077432,-0.5
392,0.00080682803,-0.5
393,0.00080496934,-0.5
394,0.0008033309,-0.5
395,0.0007999942,-0.5
396,0.0007974806,-0.5
397,0.00079653185,-0.5
398,0.0007946647,-0.5
399,0.0007916345,-0.5
400,0.00079081976,-0.5
401,0.00078833307,-0.5
402,0.0007861092,-0.5
403,0.0007823571,-0.5
404,0.00078121613,-0.5
405,0.0007793706,-0.5
406,0.00077519036,-0.5
407,0.0007748285,-0.5
408,0.000773991,-0.5
409,0.00077212777,-0.5
410,0.00077013817,-0.5
411,0.00076688745,-0.5
412,0.0007634426,-0.5
413,0.0007614259,-0.5
414,0.00076070137,-0.5
415,0.0007599843,-0.5
416,0.0007578323,-0.5
417,0.00075421255,-0.5
418,0.00075204455,-0.5
419,0.00075111154,-0.5
420,0.00074911315,-0.5
421,0.0007460259,-0.5
422,0.00074327027,-0.5
423,0.0007427006,-0.5
424,0.0007400067,-0.5
425,0.00073927944,-0.5
426,0.00073634245,-0.5
427,0.0007347632,-0.5
428,0.00073149725,-0.5
429,0.0007284812,-0.5
430,0.0007270597,-0.5
431,0.0007251156,-0.5
432,0.00072403555,-0.5
433,0.0007227608,-0.5
434,0.0007206577,-0.5
435,0.0007173821,-0.5
436,0.00071654696,-0.5
437,0.0007153095,-0.5
438,0.00071229466,-0.5
439,0.00071117387,-0.5
440,0.0007088054,-0.5
441,0.0007072018,-0.5
442,0.0007061685,-0.5
443,0.00070414256,-0.5
444,0.00070136884,-0.5
445,0.0007009045,-0.5
446,0.00069797557,-0.5
447,0.0006965932,-0.5
448,0.00069578015,-0.5
449,0.00069447677,-0.5
450,0.0006913023,-0.5
451,0.0006892258,-0.5
452,0.0006860244,-0.5
453,0.00068295165,-0.5
454,0.0006826005,-0.5
455,0.00068028405,-0.5
456,0.0006789375,-0.5
457,0.00067781616,-0.5
458,0.0006770148,-0.5
459,0.0006743816,-0.5
460,0.0006715863,-0.5
461,0.0006711783,-0.5
462,0.0006692693,-0.5
463,0.0006661274,-0.5
464,0.0006654611,-0.5
465,0.0006640087,-0.5
466,0.00066245924,-0.5
467,0.0006608251,-0.5
468,0.0006579699,-0.5
469,0.0006574165,-0.5
470,0.0006547011,-0.5
471,0.0006543559,-0.5
472,0.00065269583,-0.5
473,0.00064977934,-0.5
474,0.0006486188,-0.5
475,0.00064686924,-0.5
476,0.00064330746,-0.5
477,0.0006425638,-0.5
478,0.00063967897,-0.5
479,0.00063750905,-0.5
480,0.0006370291,-0.5
481,0.0006360298,-0.5
482,0.0006317212,-0.5
483,0.000630773,-0.5
484,0.00062952645,-0.5
485,0.00062858907,-0.5
486,0.00062716455,-0.5
487,0.00062497385,-0.5
488,0.00062470656,-0.5
489,0.0006223408,-0.5
490,0.0006211451,-0.5
491,0.0006187603,-0.5
492,0.00061744644,-0.5
493,0.0006146368,-0.5
494,0.00061371166,-0.5
495,0.0006124122,-0.5
496,0.00061149255,-0.5
497,0.0006087537,-0.5
498,0.0006063784,-0.5
499,0.0006056898,-0.5
500,0.0006047172,-0.5
501,0.00060302415,-0.5
502,0.000602146,-0.5
503,0.00059773115,-0.5
504,0.0005970131,-0.5
505,0.0005948777,-0.5
506,0.0005928237,-0.5
507,0.00059182843,-0.5
508,0.00058945833,-0.5
509,0.0005881893,-0.5
510,0.0005872589,-0.5
511,0.00058681896,-0.5
512,0.0005843133,-0.5
513,0.0005818936,-0.5
514,0.0005812439,-0.5
515,0.0005784504,-0.5
516,0.0005779839,-0.5
517,0.00057647936,-0.5
518,0.00057486334,-0.5
519,0.000574093,-0.5
520,0.000570897,-0.5
521,0.0005702948,-0.5
522,0.00056699314,-0.5
523,0.0005664653,-0.5
524,0.0005649603,-0.5
525,0.00056400767,-0.5
526,0.00056124886,-0.5
527,0.00055849965,-0.5
528,0.00055700436,-0.5
529,0.0005550302,-0.5
530,0.00055395375,-0.5
531,0.0005532144,-0.5
532,0.0005518817,-0.5
533,0.0005499751,-0.5
534,0.0005486908,-0.5
535,0.0005480338,-0.5
536,0.00054661144,-0.5
537,0.0005446184,-0.5
538,0.000542877,-0.5
539,0.0005409183,-0.5
540,0.00053995824,-0.5
541,0.00053849496,-0.5
542,0.0005372876,-0.5
543,0.0005351088,-0.5
544,0.000534064,-0.5
545,0.0005314637,-0.5
546,0.00053050753,-0.5
547,0.00052916864,-0.5
548,0.00052809797,-0.5
549,0.0005270771,-0.5
550,0.00052535924,-0.5
551,0.0005236664,-0.5
552,0.00052228884,-0.5
553,0.00052081665,-0.5
554,0.00051862915,-0.5
555,0.0005174943,-0.5
556,0.0005156628,-0.5
557,0.00051517703,-0.5
558,0.00051398925,-0.5
559,0.0005125002,-0.5
560,0.0005114438,-0.5
561,0.00050875195,-0.5
562,0.0005063339,-0.5
563,0.0005056748,-0.5
564,0.0005052018,-0.5
565,0.00050492573,-0.5
566,0.0005038678,-0.5
567,0.0005009135,-0.5
568,0.0004997796,-0.5
569,0.00049779064,-0.5
570,0.00049530354,-0.5
571,0.00049168884,-0.5
572,0.0004904,-0.5
573,0.0004899594,-0.5
574,0.00048946467,-0.5
575,0.00048775645,-0.5
576,0.0004866463,-0.5
577,0.0004860042,-0.5
578,0.00048309265,-0.5
579,0.00048152768,-0.5
580,0.00048004728,-0.5
581,0.00047925833,-0.5
582,0.00047874852,-0.5
583,0.0004770466,-0.5
584,0.00047467853,-0.5
585,0.0004733181,-0.5
586,0.00047285671,-0.5
587,0.00047099852,-0.5
588,0.0004702367,-0.5
589,0.0004675991,-0.5
590,0.00046737166,-0.5
591,0.0004652479,-0.5
592,0.00046340862,-0.5
593,0.0004622,-0.5
594,0.00046074722,-0.5
595,0.000459981,-0.5
596,0.0004595579,-0.5
597,0.00045798332,-0.5
598,0.00045589628,-0.5
599,0.00045451042,-0.5
600,0.00045389848,-0.5
601,0.0004522576,-0.5
602,0.0004509311,-0.5
603,0.00044850507,-0.5
604,0.00044744537,-0.5
605,0.00044588733,-0.5
606,0.0004449907,-0.5
607,0.00044405015,-0.5
608,0.00044265777,-0.5
609,0.00044071575,-0.5
610,0.0004399355,-0.5
611,0.00043887433,-0.5
612,0.0004371114,-0.5
613,0.00043477167,-0.5
614,0.00043392528,-0.5
615,0.00043329204,-0.5
616,0.0004316819,-0.5
617,0.00043029003,-0.5
618,0.00042849575,-0.5
619,0.0004271302,-0.5
620,0.00042475172,-0.5
621,0.0004244062,-0.5
622,0.0004232692,-0.5
623,0.00042268774,-0.5
624,0.0004210758,-0.5
625,0.00041978862,-0.5
626,0.0004180544,-0.5
627,0.00041675652,-0.5
628,0.00041520447,-0.5
629,0.0004140839,-0.5
630,0.00041269665,-0.5
631,0.0004120176,-0.5
632,0.00041033982,-0.5
633,0.00040909505,-0.5
634,0.00040826626,-0.5
635,0.00040621977,-0.5
636,0.0004047658,-0.5
637,0.00040372522,-0.5
638,0.00040250446,-0.5
639,0.00040017054,-0.5
640,0.0003993924,-0.5
641,0.0003978474,-0.5
642,0.0003968834,-0.5
643,0.00039638524,-0.5
644,0.00039506407,-0.5
645,0.00039455597,-0.5
646,0.00039204548,-0.5
647,0.00039124934,-0.5
648,0.00038916362,-0.5
649,0.00038829673,-0.5
650,0.00038711497,-0.5
651,0.00038622683,-0.5
652,0.0003851817,-0.5
653,0.0003843927,-0.5
654,0.00038324267,-0.5
655,0.00038095025,-0.5
656,0.00038056227,-0.5
657,0.00037973176,-0.5
658,0.0003780241,-0.5
659,0.0003759992,-0.5
660,0.000374851,-0.5
661,0.0003747489,-0.5
662,0.0003728924,-0.5
663,0.0003719538,-0.5
664,0.00036974743,-0.5
665,0.00036933887,-0.5
666,0.00036874734,-0.5
667,0.0003667701,-0.5
668,0.00036576547,-0.5
669,0.00036504536,-0.5
670,0.00036445068,-0.5
671,0.00036206434,-0.5
672,0.00036131564,-0.5
673,0.00035944095,-0.5
674,0.00035834275,-0.5
675,0.00035761896,-0.5
676,0.00035701314,-0.5
677,0.00035553292,-0.5
678,0.00035499086,-0.5
679,0.00035448396,-0.5
680,0.00035354402,-0.5
681,0.00035280403,-0.5
682,0.0003509309,-0.5
683,0.00034937452,-0.5
684,0.00034795667,-0.5
685,0.000346036,-0.5
686,0.0003453379,-0.5
687,0.00034376487,-0.5
688,0.00034359147,-0.5
689,0.000342559,-0.5
690,0.00034159046,-0.5
691,0.00033870974,-0.5
692,0.00033845074,-0.5
693,0.00033705376,-0.5
694,0.00033695454,-0.5
695,0.00033501524,-0.5
696,0.00033318647,-0.5
697,0.0003322527,-0.5
698,0.00033138032,-0.5
699,0.00032977355,-0.5
700,0.00032884264,-0.5
701,0.00032797593,-0.5
702,0.00032727796,-0.5
703,0.0003257118,-0.5
704,0.00032465998,-0.5
705,0.00032270828,-0.5
706,0.00032214212,-0.5
707,0.00032083405,-0.5
708,0.00031807335,-0.5
709,0.00031790402,-0.5
710,0.00031726997,-0.5
711,0.00031665553,-0.5
712,0.0003150652,-0.5
713,0.00031424646,-0.5
714,0.0003128488,-0.5
715,0.0003122156,-0.5
716,0.00031079835,-0.5
717,0.00031010906,-0.5
718,0.00030948824,-0.5
719,0.00030825852,-0.5
720,0.00030764926,-0.5
721,0.00030525285,-0.5
722,0.00030400656,-0.5
723,0.0003030215,-0.5
724,0.00030213958,-0.5
725,0.0003008101,-0.5
726,0.00030031972,-0.5
727,0.00029869823,-0.5
728,0.00029757048,-0.5
729,0.0002962462,-0.5
730,0.00029579515,-0.5
731,0.00029451208,-0.5
732,0.0002935803,-0.5
733,0.0002919565,-0.5
734,0.000291308,-0.5
735,0.00028952325,-0.5
736,0.00028879914,-0.5
737,0.0002872038,-0.5
738,0.0002856805,-0.5
739,0.00028489143,-0.5
740,0.00028468625,-0.5
741,0.00028375772,-0.5
742,0.00028198672,-0.5
743,0.00028122825,-0.5
744,0.00028003642,-0.5
745,0.00027884316,-0.5
746,0.00027854086,-0.5
747,0.0002776096,-0.5
748,0.0002755445,-0.5
749,0.00027392257,-0.5
750,0.00027302108,-0.5
751,0.00027229547,-0.5
752,0.00027192963,-0.5
753,0.00027012028,-0.5
754,0.00026916937,-0.5
755,0.00026888188,-0.5
756,0.0002682554,-0.5
757,0.00026759983,-0.5
758,0.00026601486,-0.5
759,0.0002654491,-0.5
760,0.00026384086,-0.5
761,0.00026363131,-0.5
762,0.00026295494,-0.5
763,0.00026110923,-0.5
764,0.00025959878,-0.5
765,0.0002590948,-0.5
766,0.00025904062,-0.5
767,0.00025706986,-0.5
768,0.00025639904,-0.5
769,0.00025574456,-0.5
770,0.00025474452,-0.5
771,0.00025329556,-0.5
772,0.00025228452,-0.5
773,0.00025146207,-0.5
774,0.00025021675,-0.5
775,0.00024866115,-0.5
776,0.00024860125,-0.5
777,0.0002474902,-0.5
778,0.00024678654,-0.5
779,0.0002456237,-0.5
780,0.0002448083,-0.5
781,0.0002440507,-0.5
782,0.00024333561,-0.5
783,0.00024186826,-0.5
784,0.00024106813,-0.5
785,0.00024045927,-0.5
786,0.00023886442,-0.5
787,0.00023820429,-0.5
788,0.0002370064,-0.5
789,0.00023614716,-0.5
790,0.00023446932,-0.5
791,0.00023427441,-0.5
792,0.00023288387,-0.5
793,0.00023260104,-0.5
794,0.00023166278,-0.5
795,0.00023073041,-0.5
796,0.00022970508,-0.5
797,0.00022837194,-0.5
798,0.00022734831,-0.5
799,0.00022649534,-0.5
800,0.00022647051,-0.5
801,0.0002259886,-0.5
802,0.00022400168,-0.5
803,0.00022376828,-0.5
804,0.00022256756,-0.5
805,0.00022180301,-0.5
806,0.00022158305,-0.5
807,0.00021995549,-0.5
808,0.00021926698,-0.5
809,0.00021915976,-0.5
810,0.0002171749,-0.5
811,0.00021619255,-0.5
812,0.00021478038,-0.5
813,0.00021376116,-0.5
814,0.00021294627,-0.5
815,0.00021107732,-0.5
816,0.00021090005,-0.5
817,0.00021004192,-0.5
818,0.00020975701,-0.5
819,0.00020919753,-0.5
820,0.00020793302,-0.5
821,0.00020749476,-0.5
822,0.00020704795,-0.5
823,0.00020524388,-0.5
824,0.00020393464,-0.5
825,0.00020249709,-0.5
826,0.00020189141,-0.5
827,0.0002013689,-0.5
828,0.00020008006,-0.5
829,0.00019930492,-0.5
830,0.00019867002,-0.5
831,0.00019841384,-0.5
832,0.00019737877,-0.5
833,0.00019619461,-0.5
834,0.00019536246,-0.5
835,0.00019421753,-0.5
836,0.00019307292,-0.5
837,0.00019260966,-0.5
838,0.00019120058,-0.5
839,0.00019013879,-0.5
840,0.0001897742,-0.5
841,0.000189005,-0.5
842,0.00018737702,-0.5
843,0.00018675253,-0.5
844,0.0001861863,-0.5
845,0.0001854209,-0.5
846,0.00018474457,-0.5
847,0.00018359903,-0.5
848,0.00018289116,-0.5
849,0.00018253444,-0.5
850,0.00018130506,-0.5
851,0.00018038388,-0.5
852,0.00017909183,-0.5
853,0.00017868979,-0.5
854,0.00017847284,-0.5
855,0.00017738988,-0.5
856,0.0001752056,-0.5
857,0.00017447138,-0.5
858,0.00017378858,-0.5
859,0.00017256282,-0.5
860,0.00017235245,-0.5
861,0.00017160655,-0.5
862,0.00017105637,-0.5
863,0.00016962948,-0.5
864,0.00016863979,-0.5
865,0.00016761637,-0.5
866,0.00016706699,-0.5
867,0.00016661426,-0.5
868,0.00016560752,-0.5
869,0.00016502509,-0.5
870,0.00016390349,-0.5
871,0.00016348236,-0.5
872,0.00016212428,-0.5
873,0.00016160315,-0.5
874,0.00016100268,-0.5
875,0.00016042443,-0.5
876,0.00015932079,-0.5
877,0.00015828061,-0.5
878,0.00015790781,-0.5
879,0.00015696161,-0.5
880,0.00015580437,-0.5
881,0.00015504571,-0.5
882,0.0001543419,-0.5
883,0.00015298398,-0.5
884,0.0001522671,-0.5
885,0.00015111601,-0.5
886,0.00015084188,-0.5
887,0.00015031484,-0.5
888,0.00014964804,-0.5
889,0.00014878435,-0.5
890,0.00014822242,-0.5
891,0.00014736668,-0.5
892,0.00014655592,-0.5
893,0.00014542836,-0.5
894,0.0001446641,-0.5
895,0.00014378196,-0.5
896,0.00014303334,-0.5
897,0.00014138898,-0.5
898,0.00014113594,-0.5
899,0.00014027128,-0.5
900,0.00013864225,-0.5
901,0.0001375661,-0.5
902,0.00013712706,-0.5
903,0.00013670567,-0.5
904,0.00013580409,-0.5
905,0.00013520227,-0.5
906,0.00013406666,-0.5
907,0.0001338902,-0.5
908,0.00013274283,-0.5
909,0.00013241642,-0.5
910,0.00013162126,-0.5
911,0.0001307818,-0.5
912,0.0001293211,-0.5
913,0.00012900477,-0.5
914,0.00012726666,-0.5
915,0.00012678026,-0.5
916,0.00012609363,-0.5
917,0.00012554787,-0.5
918,0.000124584,-0.5
919,0.00012357466,-0.5
920,0.00012304238,-0.5
921,0.0001220791,-0.5
922,0.00012112331,-0.5
923,0.00012046236,-0.5
924,0.00011988771,-0.5
925,0.00011881182,-0.5
926,0.00011868266,-0.5
927,0.00011707425,-0.5
928,0.0001167706,-0.5
929,0.000116117466,-0.5
930,0.00011563258,-0.5
931,0.00011472049,-0.5
932,0.00011432789,-0.5
933,0.000113622256,-0.5
934,0.00011295469,-0.5
935,0.00011140547,-0.5
936,0.00011056611,-0.5
937,0.0001100066,-0.5
938,0.00010914545,-0.5
939,0.000108733795,-0.5
940,0.00010827442,-0.5
941,0.00010702415,-0.5
942,0.00010588319,-0.5
943,0.00010470302,-0.5
944,0.000103692364,-0.5
945,0.00010304841,-0.5
946,0.00010261246,-0.5
947,0.0001013248,-0.5
948,0.00010067005,-0.5
949,0.00010060771,-0.5
950,9.957977e-05,-0.5
951,9.847177e-05,-0.5
952,9.8322875e-05,-0.5
953,9.804525e-05,-0.5
954,9.7431934e-05,-0.5
955,9.639464e-05,-0.5
956,9.5288146e-05,-0.5
957,9.461071e-05,-0.5
958,9.371167e-05,-0.5
959,9.3547096e-05,-0.5
960,9.342325e-05,-0.5
961,9.263121e-05,-0.5
962,8.991765e-05,-0.5
963,8.971427e-05,-0.5
964,8.8547946e-05,-0.5
965,8.79008e-05,-0.5
966,8.756361e-05,-0.5
967,8.703362e-05,-0.5
968,8.576621e-05,-0.5
969,8.527922e-05,-0.5
970,8.3883904e-05,-0.5
971,8.360835e-05,-0.5
972,8.323583e-05,-0.5
973,8.2873565e-05,-0.5
974,8.2017665e-05,-0.5
975,8.094529e-05,-0.5
976,7.999265e-05,-0.5
977,7.958404e-05,-0.5
978,7.8906e-05,-0.5
979,7.7359335e-05,-0.5
980,7.589585e-05,-0.5
981,7.5374446e-05,-0.5
982,7.518056e-05,-0.5
983,7.421623e-05,-0.5
984,7.2736555e-05,-0.5
985,7.212233e-05,-0.5
986,7.113784e-05,-0.5
987,7.0853464e-05,-0.5
988,6.936559e-05,-0.5
989,6.899557e-05,-0.5
990,6.835731e-05,-0.5
991,6.683251e-05,-0.5
992,6.577102e-05,-0.5
993,6.398541e-05,-0.5
994,6.3364256e-05,-0.5
995,6.2913256e-05,-0.5
996,6.2068386e-05,-0.5
997,5.9559818e-05,-0.5
998,5.6186906e-05,-0.5
999,5.5945588e-05,-0.5
1000,1.7409586e-16,-0.5
1,0.010508165,-0.6
2,0.00739715,-0.6
3,0.0054506157,-0.6
4,0.0045074024,-0.6
5,0.004212831,-0.6
6,0.003858109,-0.6
7,0.0036862725,-0.6
8,0.0032862986,-0.6
9,0.0031701932,-0.6
10,0.0030720658,-0.6
11,0.0028898725,-0.6
12,0.00279557,-0.6
13,0.002696635,-0.6
14,0.0025844155,-0.6
15,0.0025427572,-0.6
16,0.002435487,-0.6
17,0.0023745608,-0.6
18,0.00227529,-0.6
19,0.002246663,-0.6
20,0.0021996906,-0.6
21,0.0021346805,-0.6
22,0.0020878292,-0.6
23,0.002062264,-0.6
24,0.002039946,-0.6
25,0.0019688015,-0.6
26,0.001918282,-0.6
27,0.0018948544,-0.6
28,0.0018634878,-0.6
29,0.0018503186,-0.6
30,0.0018192644,-0.6
31,0.0017907145,-0.6
32,0.0017655457,-0.6
33,0.0017481878,-0.6
34,0.0017434063,-0.6
35,0.0017136377,-0.6
36,0.0017009255,-0.6
37,0.0016581384,-0.6
38,0.0016495152,-0.6
39,0.0016311504,-0.6
40,0.0016210367,-0.6
41,0.0016064296,-0.6
42,0.0015994433,-0.6
43,0.0015661566,-0.6
44,0.0015516928,-0.6
45,0.0015192825,-0.6
46,0.0015114543,-0.6
47,0.0014950944,-0.6
48,0.0014831302,-0.6
49,0.001473353,-0.6
50,0.001447082,-0.6
51,0.0014326598,-0.6
52,0.0014289693,-0.6
53,0.0014260502,-0.6
54,0.0014149869,-0.6
55,0.0013968627,-0.6
56,0.0013917057,-0.6
57,0.0013737644,-0.6
58,0.0013650464,-0.6
59,0.0013540711,-0.6
60,0.0013458823,-0.6
61,0.0013436863,-0.6
62,0.0013339337,-0.6
63,0.0013160128,-0.6
64,0.0013097718,-0.6
65,0.0012930844,-0.6
66,0.0012923923,-0.6
67,0.0012782448,-0.6
68,0.0012745522,-0.6
69,0.0012625244,-0.6
70,0.0012542193,-0.6
71,0.0012441211,-0.6
72,0.001241757,-0.6
73,0.0012373837,-0.6
74,0.0012236934,-0.6
75,0.0012186707,-0.6
76,0.0012115153,-0.6
77,0.0012085594,-0.6
78,0.0012002123,-0.6
79,0.0011890709,-0.6
80,0.0011834846,-0.6
81,0.0011796395,-0.6
82,0.0011728411,-0.6
83,0.0011670643,-0.6
84,0.0011578113,-0.6
85,0.0011553888,-0.6
86,0.0011465122,-0.6
87,0.0011371516,-0.6
88,0.0011357039,-0.6
89,0.0011314034,-0.6
90,0.0011280423,-0.6
91,0.0011191781,-0.6
92,0.0011117127,-0.6
93,0.0011088719,-0.6
94,0.0010980777,-0.6
95,0.0010917151,-0.6
96,0.0010856228,-0.6
97,0.0010843887,-0.6
98,0.0010771676,-0.6
99,0.0010710921,-0.6
100,0.0010628646,-0.6
101,0.0010557967,-0.6
102,0.0010535388,-0.6
103,0.0010526067,-0.6
104,0.001044286,-0.6
105,0.001040968,-0.6
106,0.0010384201,-0.6
107,0.0010360256,-0.6
108,0.0010310959,-0.6
109,0.0010238196,-0.6
110,0.0010205475,-0.6
111,0.0010164706,-0.6
112,0.001013237,-0.6
113,0.0010093579,-0.6
114,0.001004338,-0.6
115,0.0009980461,-0.6
116,0.0009944688,-0.6
117,0.0009915801,-0.6
118,0.0009878995,-0.6
119,0.0009830575,-0.6
120,0.0009766556,-0.6
121,0.0009696668,-0.6
122,0.000968567,-0.6
123,0.00096406654,-0.6
124,0.0009607654,-0.6
125,0.0009564946,-0.6
126,0.00095385755,-0.6
127,0.00094681943,-0.6
128,0.00094241666,-0.6
129,0.0009421302,-0.6
130,0.00094071723,-0.6
131,0.00093548355,-0.6
132,0.0009298928,-0.6
133,0.0009239381,-0.6
134,0.0009215365,-0.6
135,0.0009195275,-0.6
136,0.000915416,-0.6
137,0.00091308117,-0.6
138,0.00091144326,-0.6
139,0.00090485316,-0.6
140,0.0009019425,-0.6
141,0.00089974026,-0.6
142,0.0008953277,-0.6
143,0.0008947196,-0.6
144,0.00089307205,-0.6
145,0.0008902738,-0.6
146,0.00088525884,-0.6
147,0.0008832734,-0.6
148,0.0008787442,-0.6
149,0.00087678176,-0.6
150,0.0008698466,-0.6
151,0.0008665453,-0.6
152,0.00086477096,-0.6
153,0.00086039834,-0.6
154,0.00085853634,-0.6
155,0.00085697643,-0.6
156,0.0008528184,-0.6
157,0.000849749,-0.6
158,0.00084442145,-0.6
159,0.000840949,-0.6
160,0.0008390429,-0.6
161,0.00083592266,-0.6
162,0.0008293454,-0.6
163,0.0008280862,-0.6
164,0.0008265888,-0.6
165,0.0008209924,-0.6
166,0.0008167833,-0.6
167,0.00081464794,-0.6
168,0.00081138726,-0.6
169,0.00081042387,-0.6
170,0.00080771535,-0.6
171,0.00080451515,-0.6
172,0.00080190075,-0.6
173,0.0008004482,-0.6
174,0.00079979794,-0.6
175,0.0007963635,-0.6
176,0.0007935112,-0.6
177,0.00079204346,-0.6
178,0.00078893476,-0.6
179,0.0007871471,-0.6
180,0.00078144635,-0.6
181,0.00078092836,-0.6
182,0.00077831146,-0.6
183,0.00077219034,-0.6
184,0.00077115255,-0.6
185,0.00076741766,-0.6
186,0.00076642854,-0.6
187,0.0007658025,-0.6
188,0.0007633056,-0.6
189,0.0007611044,-0.6
190,0.00075739296,-0.6
191,0.00075180683,-0.6
192,0.0007502625,-0.6
193,0.00074968755,-0.6
194,0.0007479868,-0.6
195,0.0007426942,-0.6
196,0.0007424121,-0.6
197,0.0007399992,-0.6
198,0.0007387981,-0.6
199,0.00073452474,-0.6
200,0.00073298445,-0.6
201,0.0007317762,-0.6
202,0.0007294182,-0.6
203,0.0007249769,-0.6
204,0.0007233246,-0.6
205,0.0007212579,-0.6
206,0.0007191071,-0.6
207,0.00071302673,-0.6
208,0.00071193004,-0.6
209,0.0007099158,-0.6
210,0.0007079345,-0.6
211,0.00070580706,-0.6
212,0.0007044504,-0.6
213,0.0007041978,-0.6
214,0.0006998612,-0.6
215,0.0006996878,-0.6
216,0.0006950985,-0.6
217,0.00069342455,-0.6
218,0.0006911268,-0.6
219,0.0006877929,-0.6
220,0.0006867673,-0.6
221,0.000686259,-0.6
222,0.0006807701,-0.6
223,0.0006776241,-0.6
224,0.0006767161,-0.6
225,0.00067602965,-0.6
226,0.00067409425,-0.6
227,0.0006723443,-0.6
228,0.00066953595,-0.6
229,0.00066751865,-0.6
230,0.00066607253,-0.6
231,0.0006636506,-0.6
232,0.0006624435,-0.6
233,0.0006619562,-0.6
234,0.0006577534,-0.6
235,0.00065657304,-0.6
236,0.00065442926,-0.6
237,0.0006514047,-0.6
238,0.00064976886,-0.6
239,0.00064904557,-0.6
240,0.0006480084,-0.6
241,0.0006451296,-0.6
242,0.00064375036,-0.6
243,0.0006417179,-0.6
244,0.0006392224,-0.6
245,0.00063834863,-0.6
246,0.00063705485,-0.6
247,0.000633818,-0.6
248,0.00063090917,-0.6
249,0.000630176,-0.6
250,0.0006283511,-0.6
251,0.00062653754,-0.6
252,0.00062485976,-0.6
253,0.0006232494,-0.6
254,0.0006211414,-0.6
255,0.0006204042,-0.6
256,0.00061797764,-0.6
257,0.00061662466,-0.6
258,0.0006153758,-0.6
259,0.0006151025,-0.6
260,0.00061191735,-0.6
261,0.00061050133,-0.6
262,0.0006082273,-0.6
263,0.0006071835,-0.6
264,0.000605011,-0.6
265,0.0006024111,-0.6
266,0.00059993815,-0.6
267,0.0005974796,-0.6
268,0.0005962969,-0.6
269,0.00059529766,-0.6
270,0.00059164735,-0.6
271,0.0005898746,-0.6
272,0.00058884104,-0.6
273,0.0005867478,-0.6
274,0.000586118,-0.6
275,0.00058405026,-0.6
276,0.00058096834,-0.6
277,0.00057816185,-0.6
278,0.00057712756,-0.6
279,0.00057561457,-0.6
280,0.00057434686,-0.6
281,0.0005731727,-0.6
282,0.00057122315,-0.6
283,0.0005701136,-0.6
284,0.00056923536,-0.6
285,0.0005669597,-0.6
286,0.0005662033,-0.6
287,0.000563094,-0.6
288,0.0005608126,-0.6
289,0.0005600747,-0.6
290,0.00055919803,-0.6
291,0.0005574636,-0.6
292,0.0005556485,-0.6
293,0.00055418443,-0.6
294,0.00055335794,-0.6
295,0.0005517956,-0.6
296,0.0005493017,-0.6
297,0.00054799695,-0.6
298,0.00054663996,-0.6
299,0.0005450832,-0.6
300,0.00054293557,-0.6
301,0.0005423538,-0.6
302,0.00054172985,-0.6
303,0.0005390936,-0.6
304,0.0005382407,-0.6
305,0.0005367314,-0.6
306,0.00053380855,-0.6
307,0.00053175224,-0.6
308,0.0005315299,-0.6
309,0.00052893895,-0.6
310,0.00052746135,-0.6
311,0.0005256833,-0.6
312,0.0005251732,-0.6
313,0.00052370975,-0.6
314,0.0005227408,-0.6
315,0.00052080554,-0.6
316,0.0005191115,-0.6
317,0.0005179221,-0.6
318,0.0005170624,-0.6
319,0.00051380997,-0.6
320,0.00051283074,-0.6
321,0.00051184586,-0.6
322,0.00051122764,-0.6
323,0.00050957076,-0.6
324,0.00050893624,-0.6
325,0.0005066403,-0.6
326,0.00050537166,-0.6
327,0.00050427293,-0.6
328,0.00050290854,-0.6
329,0.0005018,-0.6
330,0.0005012048,-0.6
331,0.0004992922,-0.6
332,0.00049894425,-0.6
333,0.00049581897,-0.6
334,0.0004939881,-0.6
335,0.0004932318,-0.6
336,0.00049278245,-0.6
337,0.0004911583,-0.6
338,0.00048929645,-0.6
339,0.0004885265,-0.6
340,0.00048804068,-0.6
341,0.00048542093,-0.6
342,0.000483457,-0.6
343,0.00048283496,-0.6
344,0.00048118958,-0.6
345,0.00047941942,-0.6
346,0.0004792012,-0.6
347,0.00047853612,-0.6
348,0.00047527679,-0.6
349,0.00047308492,-0.6
350,0.00047270113,-0.6
351,0.0004715576,-0.6
352,0.00046976516,-0.6
353,0.00046813232,-0.6
354,0.00046774966,-0.6
355,0.0004663771,-0.6
356,0.00046462772,-0.6
357,0.00046374882,-0.6
358,0.0004631448,-0.6
359,0.000461198,-0.6
360,0.00046016005,-0.6
361,0.0004590001,-0.6
362,0.00045562346,-0.6
363,0.00045506083,-0.6
364,0.00045393914,-0.6
365,0.0004530863,-0.6
366,0.00045208813,-0.6
367,0.00044999615,-0.6
368,0.00044900997,-0.6
369,0.00044801336,-0.6
370,0.00044737372,-0.6
371,0.00044512248,-0.6
372,0.0004448783,-0.6
373,0.00044309153,-0.6
374,0.0004425435,-0.6
375,0.00043989473,-0.6
376,0.0004393404,-0.6
377,0.000438687,-0.6
378,0.00043811116,-0.6
379,0.00043704838,-0.6
380,0.0004353899,-0.6
381,0.00043450252,-0.6
382,0.00043275565,-0.6
383,0.00043170407,-0.6
384,0.00042910385,-0.6
385,0.00042850888,-0.6
386,0.00042772575,-0.6
387,0.00042626844,-0.6
388,0.00042550018,-0.6
389,0.00042472663,-0.6
390,0.0004229833,-0.6
391,0.0004219993,-0.6
392,0.00042134602,-0.6
393,0.0004200109,-0.6
394,0.00041913352,-0.6
395,0.00041861858,-0.6
396,0.00041728717,-0.6
397,0.00041666412,-0.6
398,0.00041427492,-0.6
399,0.0004139443,-0.6
400,0.00041224633,-0.6
401,0.00041049326,-0.6
402,0.00040978205,-0.6
403,0.00040914488,-0.6
404,0.00040791958,-0.6
405,0.00040670953,-0.6
406,0.00040588467,-0.6
407,0.00040352836,-0.6
408,0.0004028264,-0.6
409,0.00040178746,-0.6
410,0.00040125055,-0.6
411,0.0003997809,-0.6
412,0.0003991611,-0.6
413,0.0003977382,-0.6
414,0.0003961495,-0.6
415,0.0003950442,-0.6
416,0.0003938574,-0.6
417,0.00039318283,-0.6
418,0.00039090012,-0.6
419,0.00038981833,-0.6
420,0.0003888224,-0.6
421,0.00038767504,-0.6
422,0.00038697338,-0.6
423,0.00038646205,-0.6
424,0.00038481853,-0.6
425,0.00038407612,-0.6
426,0.00038278097,-0.6
427,0.000382188,-0.6
428,0.00038116312,-0.6
429,0.00038052953,-0.6
430,0.00037920798,-0.6
431,0.0003782356,-0.6
432,0.0003760798,-0.6
433,0.00037571695,-0.6
434,0.0003741857,-0.6
435,0.0003732941,-0.6
436,0.00037278817,-0.6
437,0.00037203092,-0.6
438,0.00037044534,-0.6
439,0.00036909775,-0.6
440,0.0003687563,-0.6
441,0.0003681639,-0.6
442,0.00036725943,-0.6
443,0.00036539466,-0.6
444,0.0003648126,-0.6
445,0.00036382425,-0.6
446,0.0003628193,-0.6
447,0.00036239796,-0.6
448,0.0003610214,-0.6
449,0.00036023153,-0.6
450,0.00035911487,-0.6
451,0.00035720508,-0.6
452,0.0003561079,-0.6
453,0.0003559383,-0.6
454,0.0003548552,-0.6
455,0.00035413934,-0.6
456,0.00035335956,-0.6
457,0.00035277527,-0.6
458,0.00035045773,-0.6
459,0.00034990758,-0.6
460,0.00034904564,-0.6
461,0.00034800862,-0.6
462,0.00034618517,-0.6
463,0.00034556462,-0.6
464,0.00034474142,-0.6
465,0.00034402043,-0.6
466,0.00034292147,-0.6
467,0.00034214117,-0.6
468,0.00034183566,-0.6
469,0.00034049162,-0.6
470,0.00034003225,-0.6
471,0.0003389154,-0.6
472,0.00033813296,-0.6
473,0.0003364405,-0.6
474,0.00033583655,-0.6
475,0.00033508433,-0.6
476,0.0003343052,-0.6
477,0.0003325751,-0.6
478,0.00033064972,-0.6
479,0.00033041416,-0.6
480,0.00032959864,-0.6
481,0.0003289125,-0.6
482,0.00032749373,-0.6
483,0.00032649183,-0.6
484,0.00032542733,-0.6
485,0.00032507334,-0.6
486,0.00032418146,-0.6
487,0.0003232236,-0.6
488,0.000322986,-0.6
489,0.00032265438,-0.6
490,0.0003221399,-0.6
491,0.00032034176,-0.6
492,0.00031923727,-0.6
493,0.00031894518,-0.6
494,0.00031737782,-0.6
495,0.00031696478,-0.6
496,0.0003164813,-0.6
497,0.00031498066,-0.6
498,0.0003144919,-0.6
499,0.00031395815,-0.6
500,0.00031352366,-0.6
501,0.0003119908,-0.6
502,0.00031140263,-0.6
503,0.00030919543,-0.6
504,0.00030859845,-0.6
505,0.00030728208,-0.6
506,0.0003067678,-0.6
507,0.00030625766,-0.6
508,0.00030537441,-0.6
509,0.0003040972,-0.6
510,0.00030344917,-0.6
511,0.00030225152,-0.6
512,0.00030189517,-0.6
513,0.00030060072,-0.6
514,0.0002999521,-0.6
515,0.00029979393,-0.6
516,0.00029821144,-0.6
517,0.00029781225,-0.6
518,0.00029712231,-0.6
519,0.00029620857,-0.6
520,0.00029561346,-0.6
521,0.00029444334,-0.6
522,0.00029399243,-0.6
523,0.00029251163,-0.6
524,0.00029220097,-0.6
525,0.0002911144,-0.6
526,0.00028959417,-0.6
527,0.00028886148,-0.6
528,0.00028782236,-0.6
529,0.0002875027,-0.6
530,0.00028603978,-0.6
531,0.0002857709,-0.6
532,0.00028479914,-0.6
533,0.0002845948,-0.6
534,0.00028364,-0.6
535,0.0002820346,-0.6
536,0.00028186152,-0.6
537,0.00028122062,-0.6
538,0.00027992434,-0.6
539,0.00027940384,-0.6
540,0.0002787494,-0.6
541,0.0002782246,-0.6
542,0.0002764209,-0.6
543,0.000276234,-0.6
544,0.0002756987,-0.6
545,0.0002743071,-0.6
546,0.00027357237,-0.6
547,0.00027272434,-0.6
548,0.00027220917,-0.6
549,0.00027188996,-0.6
550,0.0002707281,-0.6
551,0.00026982208,-0.6
552,0.00026887594,-0.6
553,0.00026825952,-0.6
554,0.0002675757,-0.6
555,0.00026677985,-0.6
556,0.00026669173,-0.6
557,0.00026494614,-0.6
558,0.0002646645,-0.6
559,0.00026424942,-0.6
560,0.00026404782,-0.6
561,0.00026274836,-0.6
562,0.00026174056,-0.6
563,0.0002610963,-0.6
564,0.0002600108,-0.6
